
\data\
ngram 1=16
ngram 2=150
ngram 3=845

\1-grams:
-0.6397749	+	-2.858374
-1.687846	N	-2.288699
-0.6993476	a	0
-1.354823	e	-2.145702
-1.601839	f	-2.374382
-1.394054	h	-2.581607
-1.074056	i	0
-1.197324	k	-2.778024
-1.682052	m	-2.29447
-1.690095	n	-2.286462
-1.317313	o	-2.212762
-1.50818	p	-2.467752
-1.278395	r	-2.697057
-1.239472	t	-2.735911
-1.285975	u	-2.275927
-1.973017	w	-2.005181

\2-grams:
-99	+ +
-1.382932	+ N	-1.957078
-1.308599	+ a	-1.559544
-2.244486	+ e	-0.3002858
-0.9793687	+ f	-2.357499
-0.9391277	+ h	-2.399912
-1.811103	+ i	-0.4525267
-0.934154	+ k	-2.403609
-1.134517	+ m	-2.203528
-1.528943	+ n	-1.812965
-1.889242	+ o	-0.6881741
-0.9628229	+ p	-2.374295
-1.029418	+ r	-2.306798
-0.7263998	+ t	0.3686836
-1.917979	+ u	-1.041578
-1.473216	+ w	-1.868058
-99	N +
-0.1987918	N a	-1.047739
-1.805227	N e	-0.303927
-0.5995266	N i	-1.320113
-1.153622	N o	-0.744785
-1.568391	N u	-0.4105266
-0.2724037	a +
-1.401811	a N	-0.8095404
-3.182867	a a	-0.2137473
-1.817587	a e	-0.9259633
-2.644646	a f	-0.1497954
-1.520759	a h	-1.761816
-1.252143	a i	-0.9586794
-0.8991465	a k	-2.381022
-2.064799	a m	-0.7664293
-1.601551	a n	-1.682965
-2.051973	a o	-1.171239
-1.783343	a p	-1.505333
-1.271908	a r	-2.008154
-1.553589	a t	-1.728887
-1.327849	a u	-0.988821
-2.071051	a w	-0.7996669
-0.2926498	e +
-1.812498	e N	-0.2970349
-1.214604	e a	-1.48615
-2.517312	e f	-0.6020604
-1.359885	e h	-1.283332
-1.376018	e i	-1.12803
-1.131608	e k	-1.502393
-1.901653	e m	-0.7924073
-1.338151	e n	-1.305402
-2.252789	e o	-0.2590779
-1.990065	e p	-0.2758599
-0.9122272	e r	-1.717668
-1.447531	e t	-1.198615
-2.490803	e u	-0.2543446
-1.814495	e w	-1.230449
-99	f +
-0.07991586	f a	-1.374898
-1.202826	f e	-0.5205574
-1.014844	f i	-0.867756
-2.562699	f o	-0.60206
-2.444063	f u	-0.4771212
-99	h +
-0.5595933	h a	-0.1795692
-0.9416821	h e	-0.8797737
-0.4928193	h i	-0.8660027
-0.8839592	h o	-1.304451
-0.8059851	h u	-1.488545
-0.2731915	i +
-1.926178	i N	-1.221846
-0.6722907	i a	-1.757087
-2.57164	i e	-0.4078048
-2.474188	i f	-0.875061
-1.611646	i h	-1.309618
-2.873014	i i	-0.69897
-1.452032	i k	-1.46279
-2.233334	i m	-0.8293034
-1.357451	i n	-1.556294
-2.060088	i o	-0.4863616
-1.983288	i p	-0.4987091
-1.269179	i r	-1.199856
-1.400116	i t	-1.512937
-2.189205	i u	-1.130334
-2.200412	i w	-1.130334
-99	k +
-0.2671937	k a	-0.6606922
-1.02332	k e	-0.8367188
-0.8584874	k i	-0.6594973
-0.8055807	k o	-0.5897393
-1.162564	k u	-1.334461
-99	m +
-0.2255393	m a	-0.8442955
-1.111362	m e	-0.4747851
-1.000346	m i	-0.2981983
-0.840412	m o	-1.181844
-1.094389	m u	-0.6215652
-99	n +
-0.3312508	n a	-1.520316
-0.7647409	n e	-1.33746
-0.992336	n i	-0.7527323
-0.9090016	n o	-0.7462153
-0.8739663	n u	-1.090711
-0.3041932	o +
-1.764634	o N	-0.2197949
-1.310454	o a	-0.7831946
-1.729289	o e	-0.5933167
-3.228495	o f
-1.243059	o h	-1.431502
-1.465788	o i	-0.6884944
-1.216219	o k	-1.456474
-1.89215	o m	-0.5090268
-1.465203	o n	-1.22009
-1.80946	o p	-0.9030702
-0.9029191	o r	-1.763373
-1.346865	o t	-1.330412
-1.479649	o u	-0.6091145
-99	p +
-0.4247877	p a	-0.6956681
-0.9899958	p e	-0.5091058
-0.9507672	p i	-1.24055
-0.7365852	p o	-0.953627
-0.6491886	p u	-1.490081
-99	r +
-0.5072844	r a	-0.3436954
-0.6748568	r e	-1.586265
-0.6872458	r i	-0.497671
-0.7991631	r o	-1.530408
-0.950018	r u	-1.460895
-99	t +
-0.3911333	t a	-0.3894846
-1.12692	t e	-0.4696631
-0.5821511	t i	-1.096228
-0.976642	t o	-1.363231
-0.8218302	t u	-0.461467
-0.2273162	u +
-1.954241	u N	-0.7882093
-0.9806218	u a	-1.159782
-2.257158	u e	-0.2253017
-2.868061	u f	-0.2066318
-1.637637	u h	-1.176091
-1.360101	u i	-1.346353
-1.333636	u k	-1.016792
-1.954184	u m	-0.8893018
-1.631982	u n	-1.183269
-1.879284	u p	-0.8692346
-1.058073	u r	-1.289206
-1.441711	u t	-1.269703
-99	w +
-0.1551483	w a	-1.483117
-0.6946109	w e	-0.5048641
-1.086923	w i	-0.8939465
-2.193498	w o
-2.350269	w u	-0.4771212

\3-grams:
-0.2648744	+ N a
-1.652711	+ N e
-0.4821626	+ N i
-1.203529	+ N o
-1.374268	+ N u
-0.1250708	a N a
-0.6906996	a N i
-1.486936	a N o
-1.962156	a N u
-0.1505046	e N a
-1.079891	e N e
-0.9390662	e N i
-1.238788	e N u
-0.2233258	i N a
-0.5933104	i N i
-0.8409974	i N o
-0.4422729	o N a
-0.854894	o N i
-0.3263828	o N o
-0.02678564	u N a
-0.4477725	+ a +
-1.635412	+ a N
-1.941229	+ a e
-1.530557	+ a f
-1.059343	+ a h
-1.564184	+ a i
-1.020498	+ a k
-1.651766	+ a m
-1.495663	+ a n
-1.774981	+ a o
-1.684561	+ a p
-0.8855533	+ a r
-1.15105	+ a t
-1.27764	+ a u
-1.617421	+ a w
-0.06064919	N a +
-2.058131	N a N
-2.457592	N a e
-1.874277	N a h
-1.729448	N a i
-1.699189	N a k
-2.278014	N a n
-1.441667	N a r
-1.994799	N a t
-1.979401	N a u
-0.3753187	a a r
-0.006657046	e a +
-1.087588	f a +
-2.259816	f a N
-2.376809	f a e
-1.572212	f a i
-0.0916476	f a k
-1.712694	f a n
-2.146606	f a o
-1.643352	f a r
-1.759325	f a t
-2.58933	f a u
-0.4248742	h a +
-1.103038	h a N
-1.185502	h a e
-1.756861	h a h
-1.591278	h a i
-1.336332	h a k
-1.822345	h a m
-1.126276	h a n
-2.022016	h a o
-1.644363	h a p
-1.035147	h a r
-2.087042	h a t
-0.8096419	h a u
-1.94512	h a w
-0.01096224	i a +
-2.034259	i a k
-2.429177	i a n
-2.322198	i a o
-2.555418	i a r
-0.1577531	k a +
-2.279288	k a N
-2.704544	k a e
-1.663875	k a h
-0.9659388	k a i
-1.893536	k a k
-2.129685	k a m
-1.883603	k a n
-2.303263	k a o
-1.794438	k a p
-1.333837	k a r
-1.948245	k a t
-1.370253	k a u
-1.909731	k a w
-0.4380212	m a +
-1.797195	m a N
-1.656423	m a e
-1.083506	m a h
-1.28911	m a i
-1.401471	m a k
-1.731299	m a m
-1.004003	m a n
-1.597754	m a o
-1.178106	m a r
-0.8359585	m a t
-1.190187	m a u
-0.1620785	n a +
-1.686286	n a N
-1.949424	n a e
-1.608774	n a h
-1.775349	n a i
-1.138039	n a k
-1.957198	n a m
-1.357945	n a n
-2.339321	n a o
-2.15724	n a p
-1.837308	n a r
-1.742687	n a t
-1.531128	n a u
-1.433043	n a w
-0.1373767	o a +
-1.679435	o a i
-1.465137	o a k
-1.275778	o a n
-1.533178	o a r
-0.9809862	o a t
-0.3602721	p a +
-1.935474	p a N
-1.317271	p a e
-1.657855	p a h
-1.210676	p a i
-1.091506	p a k
-1.348063	p a n
-1.746687	p a o
-1.192973	p a p
-0.8902241	p a r
-1.255239	p a t
-1.616659	p a u
-0.2977237	r a +
-0.8811888	r a N
-1.931405	r a e
-1.490801	r a h
-1.380131	r a i
-1.207288	r a k
-1.746408	r a m
-2.092016	r a n
-2.280252	r a o
-1.401718	r a p
-1.468359	r a r
-1.768797	r a t
-1.099223	r a u
-1.850134	r a w
-0.4579344	t a +
-0.8200919	t a N
-2.570967	t a a
-1.81298	t a e
-1.305451	t a h
-1.120722	t a i
-1.016109	t a k
-1.81565	t a m
-1.992683	t a n
-1.965317	t a o
-1.514774	t a p
-1.187143	t a r
-1.807879	t a t
-0.9570531	t a u
-2.720034	t a w
-0.05352049	u a +
-1.924364	u a e
-1.379893	u a k
-1.360717	u a r
-0.453698	w a +
-2.021245	w a N
-1.279384	w a e
-1.039044	w a h
-0.5681012	w a i
-1.464908	w a k
-1.762928	w a n
-1.776503	w a o
-1.035416	w a r
-1.592159	w a t
-1.902941	w a u
-1.603161	w a w
-0.6116432	+ e +
-1.356357	+ e N
-1.430642	+ e a
-1.206026	+ e h
-0.5828876	+ e k
-1.240547	+ e m
-1.312652	+ e n
-0.8024755	+ e r
-1.32681	+ e t
-0.2358252	N e +
-0.6265469	N e r
-0.1574654	a e +
-1.469436	a e N
-0.9889795	a e a
-1.654022	a e h
-1.651704	a e n
-1.003489	a e r
-0.5246503	f e +
-1.591035	f e N
-0.9892715	f e a
-1.486755	f e k
-0.8287948	f e n
-1.316195	f e o
-0.6404361	f e r
-1.121038	f e t
-0.3357463	h e +
-2.021152	h e N
-1.11336	h e a
-1.200841	h e i
-0.9493049	h e k
-1.573817	h e m
-1.701161	h e n
-2.047089	h e o
-0.7660137	h e r
-1.713899	h e t
-1.880454	h e u
-2.021333	h e w
-0.1830338	i e +
-0.8062988	i e p
-0.1550762	k e +
-2.131882	k e N
-1.64314	k e a
-1.729041	k e h
-1.926622	k e i
-1.361164	k e k
-2.138753	k e m
-1.308403	k e n
-2.155941	k e o
-1.100801	k e r
-1.312079	k e t
-0.5179009	m e +
-1.185528	m e a
-1.287445	m e h
-1.200442	m e i
-0.9460032	m e k
-1.439591	m e m
-0.774359	m e n
-0.847286	m e r
-1.408568	m e t
-0.2670615	n e +
-1.74595	n e N
-1.588489	n e a
-1.148907	n e h
-0.8199901	n e i
-0.9268748	n e k
-1.713276	n e n
-1.322232	n e t
-0.1092258	o e +
-0.9474087	o e a
-0.4842823	p e +
-1.53446	p e a
-1.727147	p e f
-1.278874	p e h
-1.334173	p e i
-0.8499397	p e k
-0.8760507	p e n
-1.249388	p e p
-0.8579357	p e r
-1.401425	p e t
-0.2682973	r e +
-1.682572	r e N
-1.336995	r e a
-2.422223	r e f
-1.291307	r e h
-1.307692	r e i
-1.333863	r e k
-1.76976	r e m
-1.705344	r e n
-2.414701	r e o
-2.021157	r e p
-0.9147387	r e r
-1.602074	r e t
-1.330742	r e w
-0.278911	t e +
-0.8740709	t e a
-1.517927	t e h
-1.678758	t e i
-1.222311	t e k
-1.400429	t e n
-0.8485835	t e r
-1.597782	t e t
-0.1498597	u e +
-0.5966037	w e +
-1.299411	w e a
-0.7210382	w e h
-1.160292	w e k
-1.399389	w e n
-1.728272	w e p
-0.6323576	w e r
-0.9964586	w e t
-1.716896	w e w
-0.06738401	+ f a
-1.216087	+ f e
-1.11498	+ f i
-2.577807	+ f o
-2.452897	+ f u
-0.6401823	a f a
-0.1424183	a f i
-0.3391523	e f a
-0.2876267	e f e
-0.3523661	i f a
-0.2626335	i f i
-0.357876	u f i
-0.5235992	+ h a
-0.9521121	+ h e
-0.5096397	+ h i
-0.8282077	+ h o
-0.8826449	+ h u
-0.4506895	a h a
-1.397495	a h e
-0.4849723	a h i
-1.266296	a h o
-0.6494462	a h u
-0.9261898	e h a
-0.4191242	e h e
-0.7889379	e h i
-1.55851	e h o
-0.5083232	e h u
-0.7943286	i h a
-1.190912	i h e
-0.1786053	i h i
-1.12476	i h o
-1.430925	i h u
-0.8211636	o h a
-0.7398958	o h e
-0.7572838	o h i
-0.5212396	o h o
-0.7190239	o h u
-0.8695202	u h a
-1.38766	u h e
-0.2430344	u h i
-0.6130471	u h u
-0.9856684	+ i +
-1.289368	+ i N
-0.8429941	+ i a
-1.237859	+ i h
-1.379794	+ i k
-0.6320904	+ i n
-1.758429	+ i o
-1.923121	+ i p
-0.8247936	+ i r
-0.8616511	+ i t
-1.343243	+ i w
-0.3727151	N i +
-0.2487871	N i a
-0.08021484	a i +
-1.94323	a i N
-1.244341	a i a
-2.250255	a i e
-1.641857	a i h
-2.083146	a i k
-2.415174	a i m
-1.599788	a i n
-2.239186	a i o
-1.906354	a i r
-1.990659	a i t
-2.413924	a i w
-0.099623	e i +
-1.654445	e i N
-1.233658	e i a
-1.636432	e i h
-1.453646	e i n
-1.597166	e i r
-1.457439	e i t
-0.5010969	f i +
-1.766307	f i N
-1.398466	f i a
-1.242937	f i f
-1.182581	f i o
-0.6669176	f i r
-0.7603405	f i t
-1.008622	f i u
-0.3573517	h i +
-2.084423	h i N
-0.4296572	h i a
-2.27571	h i h
-1.390731	h i k
-2.479354	h i m
-1.356125	h i n
-2.010306	h i o
-2.086025	h i p
-1.50212	h i r
-1.665681	h i t
-1.838395	h i w
-0.07441241	i i a
-0.1971491	k i +
-1.842458	k i N
-1.402586	k i a
-1.475837	k i h
-2.152629	k i i
-1.611499	k i k
-2.021605	k i m
-1.045704	k i n
-2.017359	k i o
-2.134769	k i p
-1.091462	k i r
-1.440526	k i t
-2.02092	k i w
-0.4067653	m i +
-1.539474	m i N
-0.9152677	m i a
-0.8797752	m i h
-1.661773	m i k
-0.9750324	m i n
-0.9712914	m i r
-1.164309	m i t
-0.1497266	n i +
-1.257499	n i a
-1.721844	n i f
-1.114507	n i h
-1.394117	n i k
-1.498521	n i n
-1.503277	n i t
-1.715893	n i u
-0.08344656	o i +
-0.9110709	o i a
-0.3302931	p i +
-1.453322	p i a
-1.230057	p i h
-0.9768385	p i k
-1.704106	p i n
-1.751001	p i o
-1.532645	p i p
-0.785125	p i r
-1.113509	p i t
-1.631523	p i u
-0.2158405	r i +
-1.569377	r i N
-1.0118	r i a
-2.018536	r i e
-1.594958	r i h
-1.236263	r i k
-1.813163	r i m
-2.052728	r i n
-1.636199	r i p
-1.246666	r i r
-1.264665	r i t
-2.013669	r i u
-0.4306983	t i +
-0.3637339	t i a
-2.376947	t i f
-2.134598	t i h
-1.286781	t i k
-2.154819	t i m
-1.487963	t i n
-2.246158	t i o
-1.741905	t i p
-1.4856	t i r
-1.488949	t i t
-2.541422	t i u
-0.1024943	u i +
-0.8674012	u i a
-1.718522	u i h
-1.537529	u i n
-1.689484	u i r
-0.2707215	w i +
-1.340321	w i h
-1.327333	w i k
-0.8752842	w i n
-0.8711864	w i r
-1.161714	w i t
-0.3522407	+ k a
-1.169914	+ k e
-0.8569936	+ k i
-0.6023592	+ k o
-1.003644	+ k u
-0.09932324	a k a
-1.39186	a k e
-1.033249	a k i
-1.300795	a k o
-1.673495	a k u
-0.6737341	e k a
-0.199344	e k e
-1.064911	e k i
-1.257787	e k o
-1.831462	e k u
-0.5625494	i k a
-1.423074	i k e
-0.324458	i k i
-0.7500458	i k o
-1.433511	i k u
-0.7128161	o k a
-0.8441363	o k e
-0.7289451	o k i
-0.3644718	o k o
-1.352981	o k u
-0.7158071	u k a
-0.6490647	u k e
-0.6972693	u k i
-0.4349542	u k u
-0.1882383	+ m a
-1.200229	+ m e
-1.048243	+ m i
-0.8467022	+ m o
-1.245469	+ m u
-0.253487	a m a
-1.066036	a m e
-0.8654954	a m o
-0.693891	a m u
-0.7946022	e m a
-0.622899	e m e
-0.6163235	e m i
-0.7338112	e m o
-0.7587807	e m u
-0.4591752	i m a
-0.5621507	i m i
-0.8777686	i m o
-0.6305187	i m u
-0.4258041	o m a
-0.5942511	o m i
-0.4941257	o m o
-0.5681337	u m a
-0.4379173	u m e
-0.8479404	u m i
-0.6905166	u m u
-0.3968325	+ n a
-0.6932651	+ n e
-1.140651	+ n i
-0.8075908	+ n o
-0.7741474	+ n u
-0.1507209	a n a
-1.106488	a n e
-1.070075	a n i
-1.500259	a n o
-1.007849	a n u
-0.6006528	e n a
-0.333524	e n e
-1.263256	e n i
-1.586592	e n o
-0.6890156	e n u
-0.3292804	i n a
-0.8776118	i n e
-0.7049353	i n i
-0.8141031	i n o
-1.317336	i n u
-0.4824075	o n a
-0.8832696	o n e
-1.373907	o n i
-0.392525	o n o
-1.034376	o n u
-0.3726079	u n a
-1.114382	u n e
-0.6916588	u n i
-0.541432	u n u
-0.6882257	+ o +
-1.67297	+ o N
-1.76616	+ o a
-0.7692859	+ o h
-1.646149	+ o i
-1.109701	+ o k
-1.680139	+ o m
-1.051512	+ o n
-1.675719	+ o p
-0.5715156	+ o r
-1.116775	+ o t
-0.208984	N o +
-1.550898	N o N
-1.238209	N o a
-1.490387	N o h
-0.9135597	N o i
-1.278711	N o r
-1.241333	N o t
-0.1713964	a o +
-1.626517	a o N
-1.225642	a o a
-1.575614	a o k
-1.60587	a o n
-0.7521013	a o r
-0.2225497	e o +
-0.8463154	e o i
-0.117913	f o a
-0.4523811	h o +
-1.624265	h o N
-1.252877	h o a
-1.330432	h o e
-1.529402	h o h
-1.68232	h o i
-1.024022	h o k
-1.705093	h o m
-1.258572	h o n
-1.331885	h o p
-0.7785595	h o r
-1.756972	h o t
-1.152757	h o u
-0.1710466	i o +
-1.096193	i o i
-1.075114	i o k
-1.162681	i o r
-0.2216252	k o +
-1.697849	k o a
-1.822944	k o e
-1.387283	k o h
-1.417269	k o i
-1.690469	k o k
-1.892996	k o m
-1.810066	k o n
-1.966518	k o p
-0.8403986	k o r
-1.197802	k o t
-1.873449	k o u
-0.3759099	m o +
-1.204611	m o a
-0.8988475	m o e
-1.435879	m o h
-1.117093	m o k
-1.394511	m o m
-1.45409	m o n
-1.130672	m o r
-1.123041	m o t
-1.316657	m o u
-0.190928	n o +
-1.459794	n o a
-0.8397036	n o h
-1.472941	n o i
-1.557343	n o k
-1.243391	n o n
-1.491739	n o r
-0.4159108	p o +
-1.467692	p o a
-1.564717	p o h
-1.32082	p o i
-0.946529	p o k
-1.391135	p o n
-1.826961	p o p
-0.8410397	p o r
-1.114822	p o t
-0.9507191	p o u
-0.209996	r o +
-1.32615	r o N
-0.9507523	r o a
-1.473328	r o h
-1.684769	r o i
-1.471943	r o k
-2.110757	r o m
-1.876307	r o n
-2.106337	r o p
-1.170252	r o r
-1.586758	r o t
-1.877387	r o u
-0.3717718	t o +
-1.759158	t o N
-1.726147	t o a
-1.849503	t o e
-0.9489399	t o h
-1.382134	t o i
-0.9887091	t o k
-1.687072	t o m
-1.382113	t o n
-1.563223	t o p
-0.8902456	t o r
-1.495534	t o t
-1.742256	t o u
-0.4300174	+ p a
-0.9995906	+ p e
-0.977973	+ p i
-0.6969262	+ p o
-0.6531954	+ p u
-0.2702274	a p a
-1.106805	a p e
-1.040958	a p i
-0.9508539	a p o
-0.7399069	a p u
-0.340153	e p a
-0.6736916	e p e
-0.9500321	e p o
-0.7999229	e p u
-0.7143397	i p a
-0.4182329	i p i
-0.8906538	i p o
-0.5792031	i p u
-0.5272397	o p a
-0.6238041	o p e
-0.7851549	o p i
-0.9103569	o p o
-0.7494913	o p u
-0.9793581	u p a
-0.82692	u p e
-1.159958	u p i
-0.8764986	u p o
-0.2645424	u p u
-0.4299137	+ r a
-0.6783977	+ r e
-0.7662762	+ r i
-0.8837153	+ r o
-0.9329519	+ r u
-0.320121	a r a
-0.8143054	a r e
-0.792759	a r i
-0.9300603	a r o
-1.048125	a r u
-0.7215545	e r a
-0.2346338	e r e
-1.33647	e r i
-0.8060445	e r o
-1.599671	e r u
-0.8278285	i r a
-1.383455	i r e
-0.1819991	i r i
-0.8380993	i r o
-0.9366428	o r a
-0.6766618	o r e
-0.8186753	o r i
-0.3392196	o r o
-1.193797	o r u
-0.6819096	u r a
-1.060387	u r e
-0.5549195	u r i
-0.3787337	u r u
-0.359601	+ t a
-1.267598	+ t e
-0.5863571	+ t i
-0.9785773	+ t o
-0.846593	+ t u
-0.2519521	a t a
-1.078405	a t e
-0.9188161	a t i
-1.23703	a t o
-0.7491287	a t u
-0.9418628	e t a
-0.4296744	e t e
-0.4306315	e t i
-1.241756	e t o
-1.068092	e t u
-0.8691417	i t a
-0.744235	i t e
-0.2761334	i t i
-0.9939771	i t o
-1.270001	i t u
-0.7499086	o t a
-1.299143	o t e
-0.5068269	o t i
-0.4667623	o t o
-0.9237511	o t u
-0.5699944	u t a
-1.045587	u t e
-0.9995969	u t i
-1.56577	u t o
-0.2894768	u t u
-0.8393149	+ u +
-1.824021	+ u N
-1.099984	+ u a
-1.667928	+ u e
-1.675672	+ u f
-1.356034	+ u h
-1.092103	+ u i
-1.220687	+ u k
-1.657789	+ u m
-1.236082	+ u n
-1.65405	+ u p
-0.5306695	+ u r
-0.8659669	+ u t
-0.2882616	N u +
-0.755969	N u r
-0.7003152	N u t
-0.05411972	a u +
-2.331587	a u N
-1.29351	a u a
-2.009066	a u i
-2.264486	a u k
-1.861376	a u n
-1.968138	a u r
-1.789123	a u t
-0.1117512	e u +
-0.4406985	f u r
-0.4616923	f u t
-0.3520682	h u +
-1.57947	h u N
-0.7639011	h u a
-1.640034	h u e
-1.629392	h u h
-1.222874	h u i
-1.392899	h u k
-1.478533	h u n
-0.817611	h u r
-1.621575	h u t
-0.0478179	i u +
-1.087143	i u a
-0.2591808	k u +
-1.486534	k u a
-1.475295	k u h
-1.20617	k u i
-1.794896	k u k
-1.329654	k u m
-1.985496	k u n
-1.546849	k u p
-0.7919416	k u r
-1.242377	k u t
-0.298641	m u +
-1.104685	m u a
-1.301117	m u i
-1.411752	m u k
-1.619601	m u m
-0.6915492	m u r
-1.076832	m u t
-0.3410707	n u +
-0.9959214	n u a
-0.52544	n u i
-0.9756572	n u k
-1.643666	n u m
-0.08530457	o u +
-1.488962	o u a
-1.031984	o u r
-0.2846913	p u +
-1.678863	p u N
-0.9855512	p u a
-2.217433	p u e
-1.565179	p u h
-1.989893	p u i
-1.061507	p u k
-1.184018	p u n
-1.820073	p u p
-1.040645	p u r
-1.266713	p u t
-0.1962572	r u +
-1.846939	r u N
-0.7362483	r u a
-1.742368	r u h
-1.589534	r u i
-1.401568	r u k
-1.846937	r u m
-1.96507	r u p
-1.424475	r u r
-1.731599	r u t
-0.2135077	t u +
-2.296254	t u N
-0.8829428	t u a
-1.318321	t u h
-1.810819	t u i
-1.126222	t u k
-1.914912	t u m
-1.827351	t u n
-1.474297	t u p
-1.393593	t u r
-1.978519	t u t
-0.1574982	w u r
-0.1512219	+ w a
-0.6748756	+ w e
-1.162034	+ w i
-2.085294	+ w o
-2.261176	+ w u
-0.1402122	a w a
-0.5845026	a w e
-0.06314331	e w a
-0.8876281	e w e
-0.3744892	i w a
-0.250558	i w i

\end\
