
\data\
ngram 1=16
ngram 2=149
ngram 3=744

\1-grams:
-0.6383471	+	-2.61343
-1.68493	N	-2.046103
-0.7039062	a	0
-1.354619	e	-1.901297
-1.628218	f	-2.102433
-1.387455	h	-2.342024
-1.067793	i	0
-1.213617	k	-2.515341
-1.671757	m	-2.059184
-1.667201	n	-2.063709
-1.326498	o	-1.99054
-1.511997	p	-2.218008
-1.267904	r	-2.461202
-1.23963	t	-2.489389
-1.272445	u	-2.044116
-1.97662	w	-1.757396

\2-grams:
-99	+ +
-1.385858	+ N	-1.712739
-1.277672	+ a	-1.351354
-2.237293	+ e	-0.4072968
-1.006785	+ f	-2.087127
-0.9330142	+ h	-2.161014
-1.824388	+ i	-0.08077526
-0.9346474	+ k	-2.158442
-1.13599	+ m	-1.959189
-1.472863	+ n	-1.627311
-1.904674	+ o	-0.3236734
-0.9605531	+ p	-2.132725
-1.012222	+ r	-2.080983
-0.735716	+ t	-2.357788
-1.939471	+ u	0.1852621
-1.492498	+ w	-0.4364917
-99	N +
-0.1887859	N a	-0.9690892
-1.830151	N e	-0.279409
-0.6330475	N i	-1.294216
-1.129801	N o	-1.051152
-1.590742	N u	-0.7533275
-0.2783284	a +
-1.38508	a N	-1.744294
-3.011222	a a
-1.806651	a e	-0.6984925
-2.668181	a f	-0.4239354
-1.523738	a h	-1.513122
-1.245096	a i	-0.7486328
-0.9297209	a k	-2.098299
-1.989069	a m	-0.6274287
-1.592754	a n	-1.447185
-2.04518	a o	-0.6761334
-1.823869	a p	-1.225336
-1.250177	a r	-1.781337
-1.514889	a t	-1.520997
-1.283514	a u	-0.8592138
-1.990444	a w	-0.6323059
-0.2910074	e +
-1.791589	e N	-0.04574037
-1.238732	e a	-1.218307
-2.438571	e f	-0.4771214
-1.399627	e h	-1.105511
-1.297171	e i	-0.5687626
-1.169327	e k	-1.322222
-1.986778	e m	-0.5314872
-1.334464	e n	-0.6668504
-2.250821	e o	-0.2397285
-1.948277	e p	-0.1819238
-0.8903849	e r	-1.499795
-1.455528	e t	-0.5176875
-2.396034	e u	-0.6989701
-1.958168	e w	-0.4367306
-99	f +
-0.0972629	f a	-1.449547
-1.165709	f e	-0.3731014
-0.9181527	f i	-0.7158972
-2.451978	f o	-0.4771213
-2.445951	f u	-0.4771213
-99	h +
-0.5726671	h a	0.03696942
-0.9719924	h e	-0.5651979
-0.4711234	h i	-0.5825481
-0.8700447	h o	-1.092827
-0.8228115	h u	-1.243046
-0.2626921	i +
-1.865949	i N	-1.054355
-0.7354081	i a	-1.463402
-2.475024	i e	-0.3470225
-2.557326	i f	-0.4065314
-1.544645	i h	-1.146119
-2.834447	i i	-0.4771213
-1.432608	i k	-1.250314
-2.148646	i m	-0.8016324
-1.369167	i n	-1.313846
-2.044806	i o	-0.6131594
-2.050328	i p	-0.2128348
-1.228814	i r	-1.540953
-1.384552	i t	-1.296692
-2.086503	i u	-1.278754
-2.153238	i w	-0.9542426
-99	k +
-0.2813388	k a	-1.793374
-1.031839	k e	-0.7105753
-0.8315268	k i	-0.2744929
-0.800619	k o	-0.5670019
-1.116477	k u	-0.5596048
-99	m +
-0.2279694	m a	-0.6193862
-1.12246	m e	-0.7617619
-0.9697901	m i	-0.2485663
-0.8703362	m o	-0.9395186
-1.065598	m u	-0.6040491
-99	n +
-0.344396	n a	-0.45518
-0.7126045	n e	-1.050957
-0.9960595	n i	-0.5929179
-0.9161203	n o	-0.4859927
-0.8977701	n u	-1.284431
-0.2956083	o +
-1.776749	o N	-0.9030898
-1.315114	o a	-0.7273774
-1.812795	o e	-0.7149993
-1.203941	o h	-1.225223
-1.450194	o i	-0.6240029
-1.236461	o k	-1.193019
-1.819452	o m	-0.8653008
-1.439096	o n	-1.008602
-1.86394	o p	-0.6434474
-0.959286	o r	-1.459559
-1.358252	o t	-1.07921
-1.426021	o u	-0.5553771
-99	p +
-0.4145684	p a	-0.7751999
-1.029245	p e	-0.6497123
-0.9238625	p i	-0.5208938
-0.7701213	p o	-1.17609
-0.6399052	p u	-1.259643
-99	r +
-0.4744367	r a	-1.551068
-0.6741334	r e	-0.3724818
-0.6824282	r i	-0.4453524
-0.8543103	r o	-0.6729116
-0.9862044	r u	-0.8740131
-99	t +
-0.3801626	t a	-0.568565
-1.115671	t e	-0.3947383
-0.6267545	t i	-0.596936
-0.9598738	t o	-1.146146
-0.7987268	t u	-0.4816762
-0.2250853	u +
-2.191049	u N	-1
-0.9578381	u a	-1.004844
-2.278704	u e	-0.1490098
-3.042117	u f
-1.718212	u h	-0.5932451
-1.306117	u i	-0.8545632
-1.381396	u k	-0.7550414
-1.920597	u m	-0.4164881
-1.635881	u n	-0.9661417
-1.893245	u p	-0.5664439
-1.079961	u r	-1.012422
-1.404105	u t	-0.6402596
-99	w +
-0.1467599	w a	-0.7442195
-0.7221987	w e	-0.3340761
-1.12539	w i	-0.7160036
-2.106941	w o
-2.353586	w u

\3-grams:
-0.2290986	+ N a
-1.561959	+ N e
-0.541427	+ N i
-1.285462	+ N o
-1.365191	+ N u
-0.1299499	a N a
-0.6748919	a N i
-1.483229	a N o
-1.854622	a N u
-0.1164658	e N a
-0.8946921	e N i
-0.2104528	i N a
-0.705511	i N i
-0.7375144	i N o
-0.5387025	o N a
-0.9491128	o N i
-0.2272355	o N o
-0.01558694	u N a
-0.4749264	+ a +
-1.863173	+ a N
-1.732855	+ a e
-1.571836	+ a f
-1.105219	+ a h
-1.453798	+ a i
-0.9741901	+ a k
-1.738485	+ a m
-1.4348	+ a n
-1.817074	+ a o
-1.809542	+ a p
-0.8569837	+ a r
-1.07342	+ a t
-1.329499	+ a u
-1.521021	+ a w
-0.05927473	N a +
-2.045843	N a h
-1.584774	N a i
-1.649479	N a k
-2.210085	N a n
-1.503058	N a r
-2.044959	N a t
-1.908035	N a u
-0.01261201	e a +
-1.028145	f a +
-2.178795	f a N
-2.212659	f a e
-1.519554	f a i
-0.1052371	f a k
-1.700854	f a n
-2.221832	f a o
-1.612745	f a r
-1.621706	f a t
-0.4436095	h a +
-1.153735	h a N
-1.182466	h a e
-1.950844	h a h
-1.541456	h a i
-1.215237	h a k
-1.870103	h a m
-1.17928	h a n
-1.992288	h a o
-1.523583	h a p
-0.9721057	h a r
-1.949681	h a t
-0.8278667	h a u
-1.870154	h a w
-0.01224041	i a +
-1.956814	i a k
-2.316794	i a o
-0.1728272	k a +
-2.121503	k a N
-2.593457	k a e
-1.651289	k a h
-0.971989	k a i
-1.873346	k a k
-2.085604	k a m
-1.968356	k a n
-2.15233	k a o
-1.852803	k a p
-1.269394	k a r
-1.845125	k a t
-1.308798	k a u
-1.731532	k a w
-0.405483	m a +
-1.885978	m a N
-1.921383	m a e
-1.063395	m a h
-1.296215	m a i
-1.51936	m a k
-1.692627	m a m
-0.9859477	m a n
-1.541098	m a o
-1.170204	m a r
-0.9398625	m a t
-1.136123	m a u
-0.164308	n a +
-1.559845	n a N
-2.093271	n a e
-1.793992	n a h
-1.676188	n a i
-1.168749	n a k
-1.821958	n a m
-1.313605	n a n
-2.094937	n a p
-1.759273	n a r
-2.05412	n a t
-1.408781	n a u
-1.478239	n a w
-0.1791836	o a +
-1.439675	o a i
-1.36884	o a k
-1.317282	o a n
-1.288899	o a r
-0.9049946	o a t
-0.3697608	p a +
-1.970047	p a N
-1.336587	p a e
-1.594792	p a h
-1.181267	p a i
-1.165785	p a k
-1.393617	p a n
-1.60911	p a o
-1.258561	p a p
-0.9085916	p a r
-1.131173	p a t
-1.451192	p a u
-0.3073979	r a +
-0.8246254	r a N
-1.903543	r a e
-1.481878	r a h
-1.400647	r a i
-1.271599	r a k
-1.691039	r a m
-2.057984	r a n
-2.369632	r a o
-1.5151	r a p
-1.447128	r a r
-1.826369	r a t
-1.056462	r a u
-1.786439	r a w
-0.4463654	t a +
-0.8513372	t a N
-2.513823	t a a
-1.767084	t a e
-1.320204	t a h
-1.165883	t a i
-0.9994654	t a k
-1.667038	t a m
-1.844698	t a n
-2.106909	t a o
-1.581688	t a p
-1.239594	t a r
-1.757947	t a t
-0.9326785	t a u
-0.05369033	u a +
-1.45323	u a k
-1.288491	u a r
-0.4222305	w a +
-1.935468	w a N
-1.283713	w a e
-1.068583	w a h
-0.5713946	w a i
-1.599178	w a k
-1.81307	w a n
-1.110385	w a r
-1.409885	w a t
-1.773167	w a u
-1.622942	w a w
-0.5429078	+ e +
-1.311938	+ e N
-1.242154	+ e a
-1.270798	+ e h
-0.6177611	+ e k
-1.322729	+ e m
-1.260238	+ e n
-0.7886369	+ e r
-0.2261458	N e +
-0.6636981	N e r
-0.1754158	a e +
-1.244187	a e N
-1.216915	a e a
-1.588987	a e h
-1.579428	a e n
-0.9116793	a e r
-0.5585548	f e +
-0.8972235	f e a
-0.7358138	f e n
-0.5605222	f e r
-1.349586	f e t
-0.3391019	h e +
-1.00564	h e a
-1.228981	h e i
-0.9690701	h e k
-1.613975	h e m
-1.792976	h e o
-0.7195387	h e r
-0.1076984	i e +
-0.1796577	k e +
-1.874742	k e N
-1.655981	k e a
-1.566215	k e h
-1.664894	k e i
-1.324316	k e k
-1.281993	k e n
-1.086084	k e r
-1.194561	k e t
-0.4957629	m e +
-1.060922	m e a
-1.343348	m e h
-1.177679	m e i
-1.052357	m e k
-1.395279	m e m
-0.7908637	m e n
-0.8611875	m e r
-1.351397	m e t
-0.2790995	n e +
-1.750624	n e N
-1.21348	n e h
-0.7262087	n e i
-0.9460506	n e k
-1.159344	n e t
-0.04293238	o e +
-0.4194718	p e +
-1.63065	p e f
-1.408239	p e h
-1.394898	p e i
-0.8721831	p e k
-1.011997	p e n
-1.087488	p e p
-0.8160888	p e r
-1.568391	p e t
-0.2519006	r e +
-1.710925	r e N
-1.36502	r e a
-1.481575	r e h
-1.257023	r e i
-1.427855	r e k
-1.887696	r e m
-1.68245	r e n
-2.187383	r e o
-2.171158	r e p
-0.8736864	r e r
-1.527863	r e t
-1.420425	r e w
-0.2804606	t e +
-0.8895712	t e a
-1.375127	t e h
-1.45211	t e i
-1.281618	t e k
-1.234993	t e n
-0.9226231	t e r
-0.1847531	u e +
-0.5727592	w e +
-1.395045	w e a
-0.7493342	w e h
-1.240671	w e k
-1.266734	w e n
-1.481353	w e p
-0.6218546	w e r
-1.0778	w e t
-0.08361347	+ f a
-1.18029	+ f e
-0.9894413	+ f i
-2.481193	+ f o
-2.48114	+ f u
-0.1747493	a f i
-0.2220055	e f a
-0.4484363	e f e
-0.1836362	i f i
-0.5321115	+ h a
-0.9640844	+ h e
-0.5056263	+ h i
-0.8270258	+ h o
-0.8645929	+ h u
-0.4462396	a h a
-1.8085	a h e
-0.4013515	a h i
-1.273948	a h o
-0.7535211	a h u
-0.8581493	e h a
-0.4191723	e h e
-0.6525025	e h i
-0.6071473	e h u
-0.8748661	i h a
-1.102113	i h e
-0.1948892	i h i
-0.9600529	i h o
-1.405466	i h u
-0.8697609	o h a
-0.8262136	o h e
-0.7572621	o h i
-0.4981844	o h o
-0.6512341	o h u
-0.2046386	u h i
-0.6104614	u h u
-0.8210024	+ i +
-1.223017	+ i N
-0.9262335	+ i a
-1.210583	+ i h
-1.365144	+ i k
-0.6604062	+ i n
-0.8758458	+ i r
-0.9161	+ i t
-1.228625	+ i w
-0.3450477	N i +
-0.2720664	N i a
-0.08837511	a i +
-1.781219	a i N
-1.188656	a i a
-1.43945	a i h
-1.752776	a i n
-2.170235	a i o
-1.924951	a i r
-1.950704	a i t
-2.17519	a i w
-0.08058102	e i +
-1.457971	e i n
-1.459943	e i t
-0.550743	f i +
-1.602562	f i N
-1.366515	f i a
-1.324659	f i f
-1.223455	f i o
-0.5963465	f i r
-0.7719238	f i t
-1.022344	f i u
-0.3099427	h i +
-1.963466	h i N
-0.4895431	h i a
-2.209411	h i h
-1.394557	h i k
-1.365386	h i n
-1.797775	h i o
-2.090765	h i p
-1.513644	h i r
-1.769001	h i t
-2.094183	h i w
-0.1378876	i i a
-0.1926347	k i +
-1.902664	k i N
-1.382274	k i a
-1.482288	k i h
-1.664834	k i k
-1.915259	k i m
-1.114321	k i n
-2.07892	k i o
-1.087921	k i r
-1.342924	k i t
-1.915406	k i w
-0.4150988	m i +
-0.961145	m i a
-0.9843528	m i h
-0.8287058	m i n
-0.9140773	m i r
-1.115021	m i t
-0.1627832	n i +
-0.9605097	n i h
-1.301629	n i k
-1.452185	n i t
-1.504508	n i u
-0.1108784	o i +
-0.7927462	o i a
-0.3953196	p i +
-1.449201	p i a
-1.115114	p i h
-0.9410782	p i k
-1.648283	p i n
-1.4218	p i p
-0.7413793	p i r
-1.059718	p i t
-1.5446	p i u
-0.221282	r i +
-1.533585	r i N
-1.02601	r i a
-1.889808	r i e
-1.523826	r i h
-1.253469	r i k
-1.645707	r i m
-1.940825	r i n
-1.787263	r i p
-1.24586	r i r
-1.304431	r i t
-1.88259	r i u
-0.3913665	t i +
-0.4383838	t i a
-2.048591	t i h
-1.205641	t i k
-2.255713	t i m
-1.357396	t i n
-2.250568	t i o
-1.78989	t i p
-1.351871	t i r
-1.478173	t i t
-0.1061959	u i +
-0.8785706	u i a
-1.544106	u i h
-1.514236	u i r
-0.2467492	w i +
-1.07559	w i k
-1.069855	w i n
-1.054148	w i r
-0.9089744	w i t
-0.354065	+ k a
-1.097932	+ k e
-0.8331057	+ k i
-0.6457012	+ k o
-0.9800627	+ k u
-0.1145667	a k a
-1.445768	a k e
-0.9600772	a k i
-1.197479	a k o
-1.639437	a k u
-0.6212395	e k a
-0.2220925	e k e
-1.044062	e k i
-1.173535	e k o
-0.5581732	i k a
-1.40973	i k e
-0.3501954	i k i
-0.6991819	i k o
-1.420168	i k u
-0.7272673	o k a
-0.8723697	o k e
-0.822539	o k i
-0.3383169	o k o
-1.16112	o k u
-0.7411249	u k a
-0.786455	u k e
-0.7366244	u k i
-0.3531312	u k u
-0.1986822	+ m a
-1.161398	+ m e
-0.9996563	+ m i
-0.8609242	+ m o
-1.219787	+ m u
-0.2150563	a m a
-1.242302	a m e
-0.9464684	a m o
-0.7128094	a m u
-0.5351409	e m a
-0.854393	e m e
-0.6819344	e m i
-0.8032941	e m o
-0.6951669	e m u
-0.3880638	i m a
-0.4779258	i m i
-0.6495538	i m u
-0.399185	o m a
-0.6163796	o m i
-0.4729342	o m o
-0.4549632	u m a
-0.4587943	u m e
-0.6843371	u m u
-0.4164461	+ n a
-0.6453744	+ n e
-1.135877	+ n i
-0.8405218	+ n o
-0.7624669	+ n u
-0.1449898	a n a
-1.19338	a n e
-1.168196	a n i
-1.326155	a n o
-0.9808035	a n u
-0.5945277	e n a
-0.2872228	e n e
-1.37942	e n i
-0.7944031	e n u
-0.3476088	i n a
-0.7347907	i n e
-0.6803067	i n i
-0.87909	i n o
-1.592435	i n u
-0.4963849	o n a
-0.8643939	o n e
-1.162937	o n i
-0.3935654	o n o
-1.14734	o n u
-0.3976485	u n a
-0.9912532	u n e
-0.643734	u n i
-0.5901965	u n u
-0.6418191	+ o +
-0.7471936	+ o h
-1.118656	+ o k
-1.605657	+ o m
-0.8861857	+ o n
-0.7318174	+ o r
-1.013741	+ o t
-0.1477217	N o +
-1.030624	N o a
-0.9420921	N o i
-1.315691	N o t
-0.1777891	a o +
-1.365363	a o a
-0.6534536	a o r
-0.2992153	e o +
-0.6307024	e o i
-0.1657055	f o a
-0.4173745	h o +
-1.860988	h o N
-1.180323	h o a
-1.41443	h o e
-1.625578	h o h
-1.46955	h o i
-1.00943	h o k
-1.583886	h o m
-1.333332	h o n
-1.294188	h o p
-0.8758489	h o r
-1.796934	h o t
-1.146603	h o u
-0.09411398	i o +
-0.994468	i o r
-0.2426105	k o +
-1.552086	k o a
-1.326924	k o h
-1.274369	k o i
-1.674584	k o k
-1.718815	k o m
-1.783972	k o n
-2.096545	k o p
-0.8499237	k o r
-1.165763	k o t
-1.78257	k o u
-0.3477558	m o +
-1.200418	m o a
-0.9779137	m o e
-1.38018	m o h
-1.121284	m o k
-1.321309	m o m
-1.299651	m o n
-1.232095	m o r
-1.292305	m o t
-1.298546	m o u
-0.2025262	n o +
-1.511014	n o a
-0.7652799	n o h
-1.495859	n o k
-1.530747	n o n
-1.296822	n o r
-0.3832598	p o +
-1.364245	p o a
-1.616752	p o h
-1.309529	p o i
-1.076406	p o k
-1.446616	p o n
-1.846329	p o p
-0.8729323	p o r
-1.081331	p o t
-0.9361676	p o u
-0.177895	r o +
-1.178106	r o N
-1.085374	r o a
-1.50109	r o h
-1.595967	r o i
-1.658669	r o k
-1.991588	r o m
-1.943629	r o n
-1.361094	r o r
-1.78314	r o t
-1.682059	r o u
-0.3874394	t o +
-1.914234	t o N
-1.700253	t o a
-1.754914	t o e
-0.865395	t o h
-1.610634	t o i
-0.9225284	t o k
-1.918239	t o m
-1.240001	t o n
-1.757941	t o p
-0.9290945	t o r
-1.600178	t o t
-1.520702	t o u
-0.408747	+ p a
-1.043225	+ p e
-0.9309795	+ p i
-0.7389777	+ p o
-0.6582591	+ p u
-0.2915703	a p a
-1.113547	a p e
-1.043705	a p i
-0.9308922	a p o
-0.6901245	a p u
-0.3562803	e p a
-0.863026	e p e
-0.6376763	e p u
-0.8041146	i p a
-0.4636532	i p i
-0.8126051	i p o
-0.5438962	i p u
-0.5697438	o p a
-0.692364	o p e
-0.786626	o p i
-0.8877478	o p o
-0.6309796	o p u
-0.8142838	u p e
-0.9144325	u p o
-0.2312762	u p u
-0.3881887	+ r a
-0.6866896	+ r e
-0.7548524	+ r i
-1.011684	+ r o
-0.9509097	+ r u
-0.3287076	a r a
-0.8073656	a r e
-0.7984146	a r i
-0.8923039	a r o
-1.056497	a r u
-0.6713237	e r a
-0.2588441	e r e
-1.242545	e r i
-0.8239217	e r o
-1.54389	e r u
-0.8137878	i r a
-1.307509	i r e
-0.1993667	i r i
-0.7896866	i r o
-0.8428749	o r a
-0.6261324	o r e
-0.835341	o r i
-0.3751788	o r o
-1.282368	o r u
-0.6210017	u r a
-0.9775166	u r e
-0.5614471	u r i
-0.4352563	u r u
-0.347737	+ t a
-1.195741	+ t e
-0.6451396	+ t i
-0.9429463	+ t o
-0.8331959	+ t u
-0.2606681	a t a
-1.247762	a t e
-0.9151674	a t i
-1.342253	a t o
-0.6426764	a t u
-0.8785996	e t a
-0.4483621	e t e
-0.3798887	e t i
-1.216411	e t u
-0.91344	i t a
-0.7555082	i t e
-0.2865272	i t i
-0.9331135	i t o
-1.16346	i t u
-0.6294386	o t a
-1.401011	o t e
-0.5431052	o t i
-0.4653733	o t o
-1.015115	o t u
-0.4613858	u t a
-1.40819	u t e
-0.9942777	u t i
-0.3111897	u t u
-0.7335004	+ u +
-1.049164	+ u a
-1.565587	+ u h
-1.0334	+ u i
-1.260733	+ u k
-1.416321	+ u m
-1.191384	+ u n
-0.5916317	+ u r
-0.8178347	+ u t
-0.2398155	N u +
-0.6021059	N u r
-0.9044597	N u t
-0.05823685	a u +
-1.198245	a u a
-2.065082	a u i
-1.829228	a u n
-2.014198	a u r
-1.814338	a u t
-0.03663297	e u +
-0.1676111	f u t
-0.3456559	h u +
-1.756691	h u N
-0.6855074	h u a
-1.6353	h u e
-1.739066	h u h
-1.14633	h u i
-1.70958	h u k
-1.616567	h u n
-0.8844972	h u r
-1.437241	h u t
-0.009344686	i u +
-0.2497748	k u +
-1.344865	k u a
-1.626362	k u h
-1.152876	k u i
-1.747321	k u k
-1.27785	k u m
-1.635086	k u p
-0.8791376	k u r
-1.206346	k u t
-0.2998744	m u +
-1.071868	m u a
-1.388312	m u k
-0.6434838	m u r
-0.9454136	m u t
-0.433445	n u +
-0.8677578	n u a
-0.4065173	n u i
-1.031201	n u k
-0.1034555	o u +
-1.309297	o u a
-0.9823312	o u r
-0.2900901	p u +
-1.984881	p u N
-1.065195	p u a
-1.987605	p u e
-1.507906	p u h
-1.895582	p u i
-1.084677	p u k
-1.147081	p u n
-1.683961	p u p
-1.024223	p u r
-1.172831	p u t
-0.1970968	r u +
-1.885218	r u N
-0.7074109	r u a
-1.697297	r u h
-1.661498	r u i
-1.330955	r u k
-1.706168	r u m
-1.439091	r u r
-0.2108188	t u +
-0.9002203	t u a
-1.399194	t u h
-1.75084	t u i
-1.166268	t u k
-1.792073	t u m
-1.779402	t u n
-1.497581	t u p
-1.264756	t u r
-2.021955	t u t
-0.1355759	+ w a
-0.7170117	+ w e
-1.214965	+ w i
-1.99806	+ w o
-0.1523003	a w a
-0.563621	a w e
-0.04812862	e w a
-0.2809223	i w a
-0.3441232	i w i

\end\
