
\data\
ngram 1=16
ngram 2=153
ngram 3=1045

\1-grams:
-0.6452556	+	-3.417834
-1.740503	N	-2.800029
-0.7126638	a	0
-1.369133	e	-2.694568
-1.607305	f	-2.933077
-1.431416	h	-3.108805
-1.064281	i	0
-1.188997	k	-3.351173
-1.703784	m	-2.836697
-1.727871	n	-2.812644
-1.271123	o	-2.792315
-1.483458	p	-3.056852
-1.276866	r	-3.263257
-1.196809	t	-3.343351
-1.258994	u	-2.804502
-2.006209	w	-2.53479

\2-grams:
-99	+ +
-1.440563	+ N	-2.453163
-1.335475	+ a	-2.08553
-2.194798	+ e	-1.339122
-0.9938181	+ f	0.2767177
-0.9791058	+ h	0.437784
-1.806891	+ i	-1.681271
-0.9019765	+ k	0.6031208
-1.156846	+ m	0.3431301
-1.589409	+ n	-2.308477
-1.892452	+ o	-1.566488
-0.9514364	+ p	0.3581605
-1.053297	+ r	0.6663628
-0.6705055	+ t	0.3639679
-1.932202	+ u	-1.559334
-1.522282	+ w	-2.375116
-0.2520163	N a	0
-99	N +
-1.397893	N e	-0.667222
-0.5652938	N i	-1.582943
-1.037699	N o	-1.238257
-1.448715	N u	-0.745614
-0.2682604	a +
-1.471374	a N	-2.356323
-2.826638	a a	-0.9598804
-1.915094	a e	-1.231764
-2.369947	a f	-1.687229
-1.57099	a h	1.095377
-1.304447	a i	-0.9706116
-0.9102123	a k	0.6786745
-2.075745	a m	-1.759028
-1.656488	a n	-2.173677
-2.00553	a o	-1.492635
-1.727468	a p	-2.100396
-1.234925	a r	0.9149559
-1.513637	a t	1.27301
-1.283721	a u	-2.131869
-2.011724	a w	-2.041437
-0.3055703	e +
-1.72058	e N	-1.465353
-1.199551	e a	-1.508045
-2.298109	e f	-1.290035
-1.34747	e h	-1.829111
-1.489896	e i	-1.091471
-1.116312	e k	1.537958
-1.914966	e m	-1.278661
-1.359717	e n	-1.818663
-2.116263	e o	-0.8037735
-1.738722	e p	-1.4475
-0.9490592	e r	1.283677
-1.289766	e t	-1.889498
-2.270469	e u	-0.6054206
-1.878757	e w	-1.698973
-99	f +
-0.08960409	f a	-1.903751
-1.064774	f e	-1.213935
-1.012509	f i	-1.306085
-2.910421	f o	-0.3608649
-2.909796	f u	-0.544068
-0.5789001	h a	0
-99	h +
-0.9644396	h e	-1.705762
-0.509295	h i	-1.311265
-0.8515084	h o	-1.848367
-0.7519399	h u	-1.981186
-0.3156299	i +
-1.986766	i N	-1.718769
-0.5657141	i a	-2.008187
-2.647683	i e	-0.5799916
-2.275311	i f	-1.607452
-1.651889	i h	-1.83106
-3.118968	i i	-0.3545336
-1.450801	i k	1.567813
-2.286834	i m	-1.306424
-1.381805	i n	-2.095799
-1.999429	i o	-1.114367
-1.902045	i p	-1.583184
-1.287013	i r	1.317017
-1.447551	i t	1.55675
-2.231209	i u	-0.8619823
-2.224947	i w	-1.106295
-0.2938557	k a	0
-99	k +
-1.065485	k e	-1.236523
-0.8976887	k i	-0.4941039
-0.7096117	k o	-0.4440627
-1.077316	k u	-1.044281
-99	m +
-0.2566988	m a	-0.8837631
-1.202804	m e	-0.8605329
-0.9331459	m i	-0.6733633
-0.788054	m o	-1.053864
-0.9863328	m u	-0.444414
-99	n +
-0.3711177	n a	-1.968806
-0.7774455	n e	-1.19969
-0.8647898	n i	-1.090324
-0.9006709	n o	-1.54406
-0.8401882	n u	-1.583213
-0.3158117	o +
-1.722298	o N	-1.653212
-1.326111	o a	-1.017573
-1.852403	o e	-0.734731
-2.811011	o f	-0.1174529
-1.251182	o h	-2.021191
-1.478112	o i	-1.039566
-1.208083	o k	1.531927
-1.922001	o m	-0.8997173
-1.432834	o n	-1.842923
-1.623123	o p	-1.654849
-0.8633841	o r	1.100908
-1.40269	o t	-1.872872
-1.478769	o u	-0.7582496
-2.921291	o w	-0.669009
-0.4292643	p a	0
-99	p +
-0.971029	p e	-0.9446115
-0.9275054	p i	-0.4936571
-0.729156	p o	-1.989643
-0.6661494	p u	0.1998944
-0.5272319	r a	0
-99	r +
-0.6974064	r e	1.971449
-0.7018619	r i	-0.7675688
-0.7534927	r o	-0.4148409
-0.8965921	r u	-0.3474414
-0.4532478	t a	0
-99	t +
-1.161364	t e	-0.5916398
-0.4766372	t i	-1.070937
-0.9615767	t o	-1.971371
-0.8675786	t u	-2.032322
-0.222637	u +
-1.896831	u N	-1.355347
-0.9952095	u a	-1.100883
-2.131536	u e	-0.5876139
-2.543311	u f	-0.3247627
-1.653122	u h	-1.637954
-1.547155	u i	-1.597383
-1.28339	u k	-1.695635
-1.855775	u m	-1.534663
-1.670367	u n	-1.716006
-3.299039	u o
-1.855136	u p	-1.440214
-1.047212	u r	1.27193
-1.46346	u t	-1.822651
-3.362769	u w	-0.07269531
-99	w +
-0.1708112	w a	-1.193831
-0.6369253	w e	-1.068686
-1.059316	w i	-1.151119
-2.603551	w o	-0.1395206
-2.511501	w u	-0.7781513

\3-grams:
-0.3645848	+ N a
-1.302248	+ N e
-0.4417753	+ N i
-1.022922	+ N o
-1.209368	+ N u
-0.1474565	a N a
-1.796833	a N e
-0.6600773	a N i
-1.362665	a N o
-2.008543	a N u
-0.2463294	e N a
-0.8380166	e N e
-0.6965904	e N i
-1.291706	e N o
-1.450197	e N u
-0.2630242	i N a
-0.6541176	i N i
-0.6362916	i N o
-0.4212402	o N a
-1.046831	o N e
-0.7355975	o N i
-0.4603195	o N o
-0.03774064	u N a
-1.184574	u N u
-0.4604855	+ a +
-1.509163	+ a N
-2.348383	+ a e
-1.504901	+ a f
-1.072608	+ a h
-1.696075	+ a i
-1.141201	+ a k
-1.647146	+ a m
-1.568144	+ a n
-1.606623	+ a o
-1.414425	+ a p
-0.8904292	+ a r
-1.152496	+ a t
-1.172133	+ a u
-1.511944	+ a w
-0.07963201	N a +
-1.938054	N a N
-2.135925	N a a
-2.13027	N a e
-2.343884	N a f
-1.962199	N a h
-1.629553	N a i
-1.745956	N a k
-2.92139	N a m
-2.611887	N a n
-1.92519	N a o
-2.888997	N a p
-1.425033	N a r
-1.879775	N a t
-1.89211	N a u
-2.396009	N a w
-0.05930862	a a +
-1.078349	a a r
-0.02322888	e a +
-2.354123	e a e
-2.065226	e a o
-2.025883	e a r
-2.324531	e a t
-1.805593	e a u
-1.096771	f a +
-2.032875	f a N
-2.754499	f a e
-2.241711	f a f
-1.477078	f a i
-0.1019978	f a k
-1.763722	f a n
-2.240136	f a o
-1.532133	f a r
-1.67238	f a t
-2.321841	f a u
-0.435733	h a +
-1.133958	h a N
-2.752182	h a a
-1.380295	h a e
-2.74585	h a f
-1.70861	h a h
-1.788795	h a i
-1.199449	h a k
-1.799222	h a m
-1.163248	h a n
-1.887212	h a o
-1.684971	h a p
-1.062681	h a r
-2.071664	h a t
-0.7224216	h a u
-1.887256	h a w
-0.007518487	i a +
-3.085519	i a h
-2.446137	i a k
-3.1178	i a m
-2.521011	i a n
-2.757458	i a o
-2.644611	i a p
-2.850261	i a r
-2.804377	i a t
-3.045021	i a u
-0.1626029	k a +
-2.272521	k a N
-3.056359	k a a
-2.793866	k a e
-2.908083	k a f
-1.673071	k a h
-1.030837	k a i
-1.724103	k a k
-2.250426	k a m
-1.891979	k a n
-2.223904	k a o
-1.773771	k a p
-1.268942	k a r
-1.909266	k a t
-1.329533	k a u
-1.802403	k a w
-0.4764687	m a +
-1.623998	m a N
-2.976217	m a a
-1.881089	m a e
-1.194509	m a h
-1.354032	m a i
-1.269696	m a k
-1.647572	m a m
-1.048504	m a n
-1.667941	m a o
-2.419092	m a p
-1.086685	m a r
-0.7219027	m a t
-1.261899	m a u
-2.663747	m a w
-0.1815284	n a +
-1.983318	n a N
-2.240583	n a a
-1.963545	n a e
-1.517491	n a h
-1.82799	n a i
-1.100171	n a k
-1.6118	n a m
-1.336466	n a n
-1.994187	n a o
-1.796952	n a p
-2.150423	n a r
-1.548732	n a t
-1.60355	n a u
-1.480751	n a w
-0.09529648	o a +
-1.6705	o a i
-1.464125	o a k
-1.413705	o a n
-1.76719	o a r
-1.22974	o a t
-1.832586	o a u
-0.3769894	p a +
-1.791273	p a N
-2.72496	p a a
-1.374421	p a e
-2.842709	p a f
-1.64449	p a h
-1.401237	p a i
-1.037417	p a k
-2.71319	p a m
-1.4246	p a n
-1.748016	p a o
-1.088305	p a p
-0.8204908	p a r
-1.24506	p a t
-1.885049	p a u
-2.367908	p a w
-0.3130509	r a +
-0.9301978	r a N
-3.131255	r a a
-2.002952	r a e
-2.289193	r a f
-1.37137	r a h
-1.519436	r a i
-1.261436	r a k
-1.80261	r a m
-1.853635	r a n
-2.430626	r a o
-1.431825	r a p
-1.313805	r a r
-1.840943	r a t
-0.9798051	r a u
-1.833686	r a w
-0.4475197	t a +
-0.9447774	t a N
-2.744155	t a a
-1.848834	t a e
-2.15827	t a f
-1.404821	t a h
-1.115359	t a i
-1.069635	t a k
-1.890595	t a m
-2.108531	t a n
-1.881817	t a o
-1.556103	t a p
-1.084318	t a r
-1.610771	t a t
-0.8799088	t a u
-2.286332	t a w
-0.04675043	u a +
-2.012755	u a N
-2.134514	u a e
-2.676074	u a f
-2.347053	u a h
-2.10181	u a i
-1.501605	u a k
-2.658728	u a o
-2.632668	u a p
-1.650868	u a r
-2.451747	u a t
-2.546661	u a u
-2.493023	u a w
-0.5048693	w a +
-2.329598	w a N
-1.169253	w a e
-1.126423	w a h
-0.5497028	w a i
-1.306477	w a k
-1.647714	w a n
-1.742746	w a o
-0.9856933	w a r
-1.645733	w a t
-1.844358	w a u
-1.588725	w a w
-0.9879424	+ e +
-1.408496	+ e N
-1.34797	+ e a
-1.011095	+ e h
-0.7114295	+ e k
-1.267669	+ e m
-1.174664	+ e n
-1.928088	+ e o
-0.9677595	+ e p
-0.6911722	+ e r
-1.284259	+ e t
-1.628816	+ e w
-0.3928754	N e +
-1.087141	N e N
-1.465106	N e a
-1.396814	N e h
-1.497629	N e i
-1.552214	N e k
-1.2083	N e n
-1.229085	N e o
-0.7178081	N e r
-1.257943	N e t
-0.1341115	a e +
-1.361337	a e N
-1.045624	a e a
-1.749061	a e h
-1.790905	a e k
-1.646351	a e n
-2.133117	a e o
-1.22108	a e r
-0.4807696	f e +
-1.665612	f e N
-1.263741	f e a
-1.798423	f e f
-1.938618	f e i
-1.260404	f e k
-0.8364429	f e n
-1.576956	f e o
-0.7860931	f e r
-0.7983394	f e t
-1.971931	f e u
-0.3705313	h e +
-1.504219	h e N
-1.096878	h e a
-1.868288	h e h
-1.290135	h e i
-1.000177	h e k
-1.547158	h e m
-1.460731	h e n
-2.528181	h e o
-2.498625	h e p
-0.8242174	h e r
-1.628675	h e t
-1.549212	h e u
-1.568906	h e w
-0.2114183	i e +
-1.214676	i e a
-0.9418244	i e k
-1.098374	i e p
-1.163794	i e r
-0.2062173	k e +
-2.193764	k e N
-1.530122	k e a
-1.565428	k e h
-1.659292	k e i
-1.177395	k e k
-2.489685	k e m
-1.451562	k e n
-2.204946	k e o
-0.9279217	k e r
-1.26066	k e t
-2.502923	k e u
-2.369078	k e w
-0.6427838	m e +
-1.304529	m e N
-1.106264	m e a
-1.333158	m e h
-1.487464	m e i
-0.909415	m e k
-1.050183	m e m
-0.842486	m e n
-0.9189508	m e r
-1.085426	m e t
-0.2303753	n e +
-1.949137	n e N
-1.316057	n e a
-1.837153	n e f
-1.157608	n e h
-1.086565	n e i
-1.054041	n e k
-1.273332	n e n
-2.21855	n e r
-1.549947	n e t
-2.124558	n e w
-0.1282709	o e +
-0.9507695	o e a
-1.471977	o e k
-1.650329	o e m
-1.363995	o e r
-0.4786705	p e +
-2.280417	p e N
-1.416376	p e a
-2.307283	p e f
-1.081594	p e h
-1.505498	p e i
-0.7898612	p e k
-1.135414	p e n
-2.30213	p e o
-1.285884	p e p
-0.8570994	p e r
-1.206571	p e t
-2.003142	p e w
-0.2479826	r e +
-1.821186	r e N
-1.247155	r e a
-2.189163	r e f
-1.255507	r e h
-1.359859	r e i
-1.349266	r e k
-1.888133	r e m
-1.925921	r e n
-2.189163	r e o
-1.578148	r e p
-1.0535	r e r
-1.53595	r e t
-2.423246	r e u
-1.587103	r e w
-0.2966565	t e +
-1.651621	t e N
-0.8852065	t e a
-2.039544	t e f
-1.822084	t e h
-1.759434	t e i
-1.244395	t e k
-2.174767	t e m
-1.534134	t e n
-2.102921	t e o
-1.651915	t e p
-0.9771505	t e r
-1.166917	t e t
-2.547214	t e w
-0.1848788	u e +
-1.238372	u e a
-1.252664	u e h
-1.228202	u e k
-1.089359	u e n
-1.301079	u e r
-0.5306391	w e +
-1.336409	w e a
-0.9707144	w e h
-1.637003	w e i
-0.9871933	w e k
-1.319022	w e n
-2.263436	w e p
-0.6683348	w e r
-0.8884785	w e t
-2.294806	w e u
-1.697976	w e w
-0.07368131	+ f a
-1.099478	+ f e
-1.138139	+ f i
-2.901567	+ f o
-2.901567	+ f u
-0.5684081	a f a
-0.5931283	a f e
-0.323673	a f i
-0.16574	e f a
-0.5056924	e f e
-0.3104922	i f a
-0.2936477	i f i
-0.1020265	o f a
-0.8766418	o f e
-0.3486989	u f a
-0.2926717	u f i
-0.5371192	+ h a
-1.030882	+ h e
-0.5148428	+ h i
-0.7936998	+ h o
-0.827045	+ h u
-0.4761647	a h a
-1.324139	a h e
-0.5294725	a h i
-1.038529	a h o
-0.6458534	a h u
-0.8922436	e h a
-0.5180121	e h e
-0.7688891	e h i
-1.361487	e h o
-0.4501512	e h u
-0.8102617	i h a
-1.073422	i h e
-0.2245389	i h i
-0.9411629	i h o
-1.301411	i h u
-0.8677837	o h a
-0.6153303	o h e
-0.7273394	o h i
-0.705191	o h o
-0.6244748	o h u
-0.8406592	u h a
-1.204756	u h e
-0.3008393	u h i
-1.76781	u h o
-0.5591404	u h u
-1.260079	+ i +
-1.345953	+ i N
-0.8105056	+ i a
-2.313848	+ i e
-1.029592	+ i h
-1.210171	+ i k
-2.185893	+ i m
-0.5923159	+ i n
-1.561423	+ i o
-1.430392	+ i p
-0.9278861	+ i r
-0.9858682	+ i t
-1.431997	+ i w
-0.3873613	N i +
-2.617295	N i N
-0.2509841	N i a
-2.432786	N i h
-2.562607	N i n
-2.326283	N i o
-2.288221	N i r
-2.073441	N i t
-0.07998224	a i +
-1.991186	a i N
-1.208212	a i a
-2.523675	a i e
-1.743633	a i h
-1.934838	a i k
-2.737371	a i m
-1.576012	a i n
-2.219093	a i o
-2.722056	a i p
-1.975768	a i r
-1.934749	a i t
-2.735879	a i u
-2.613912	a i w
-0.1211626	e i +
-1.686622	e i N
-1.109971	e i a
-1.601827	e i h
-1.527468	e i n
-1.522696	e i r
-1.26932	e i t
-0.4963988	f i +
-2.306551	f i N
-1.461554	f i a
-1.12354	f i f
-2.103826	f i k
-1.165515	f i o
-0.6726823	f i r
-0.6981714	f i t
-1.137226	f i u
-0.3804185	h i +
-2.150882	h i N
-0.4224798	h i a
-2.599766	h i e
-1.898137	h i h
-1.238898	h i k
-2.518109	h i m
-1.325659	h i n
-2.254572	h i o
-1.975632	h i p
-1.596259	h i r
-1.763651	h i t
-1.795184	h i w
-0.168698	i i a
-0.2137908	k i +
-2.005939	k i N
-1.257612	k i a
-2.838073	k i f
-1.530233	k i h
-2.678276	k i i
-1.444785	k i k
-2.306958	k i m
-1.0545	k i n
-1.948707	k i o
-1.975297	k i p
-0.9874029	k i r
-1.671846	k i t
-2.666641	k i u
-1.899588	k i w
-0.4689384	m i +
-1.382091	m i N
-1.018983	m i a
-1.17995	m i h
-1.399509	m i k
-1.613043	m i m
-0.9770648	m i n
-1.610333	m i o
-0.7791746	m i r
-1.066164	m i t
-2.298652	m i u
-0.1725716	n i +
-1.31045	n i a
-1.355601	n i f
-1.063978	n i h
-1.392604	n i k
-1.467731	n i n
-2.159651	n i p
-1.600034	n i t
-1.654962	n i u
-1.874716	n i w
-0.09562541	o i +
-2.180335	o i N
-0.9767098	o i a
-1.995826	o i h
-1.418629	o i o
-1.628043	o i r
-0.3187429	p i +
-2.504213	p i N
-1.33139	p i a
-1.370212	p i h
-1.142709	p i k
-1.483044	p i n
-1.686826	p i o
-1.403212	p i p
-0.7702401	p i r
-1.142674	p i t
-1.83378	p i u
-0.2020029	r i +
-1.628978	r i N
-0.9289539	r i a
-2.116865	r i e
-2.219378	r i f
-1.740927	r i h
-1.228413	r i k
-1.900823	r i m
-2.0692	r i n
-2.474514	r i o
-1.563401	r i p
-1.413915	r i r
-1.368847	r i t
-2.260048	r i u
-0.5620009	t i +
-2.655543	t i N
-0.2311674	t i a
-3.085194	t i e
-2.450727	t i f
-2.114842	t i h
-1.548104	t i k
-2.204211	t i m
-1.718297	t i n
-2.285097	t i o
-1.912354	t i p
-1.676371	t i r
-1.565024	t i t
-2.360834	t i u
-0.09733296	u i +
-0.9252474	u i a
-1.653179	u i h
-1.930876	u i k
-1.718975	u i n
-1.713195	u i r
-2.132615	u i u
-0.3045419	w i +
-1.574898	w i h
-1.679585	w i k
-0.9570482	w i n
-0.5893773	w i r
-1.277583	w i t
-1.884642	w i w
-0.4098343	+ k a
-1.175034	+ k e
-0.944818	+ k i
-0.4840573	+ k o
-0.9941293	+ k u
-0.09777695	a k a
-1.437709	a k e
-1.023399	a k i
-1.423561	a k o
-1.502742	a k u
-0.5871343	e k a
-0.2632414	e k e
-1.155336	e k i
-1.03312	e k o
-1.611268	e k u
-0.6861486	i k a
-1.426511	i k e
-0.3564734	i k i
-0.6036896	i k o
-1.23618	i k u
-0.6596243	o k a
-0.8443499	o k e
-0.718105	o k i
-0.39794	o k o
-1.421005	o k u
-0.6898034	u k a
-0.8529459	u k e
-0.778327	u k i
-0.3143502	u k u
-0.2163363	+ m a
-1.282415	+ m e
-0.9798687	+ m i
-0.7884157	+ m o
-1.149949	+ m u
-0.328293	a m a
-1.195112	a m e
-1.144369	a m i
-0.8578401	a m o
-0.5915001	a m u
-0.7799286	e m a
-0.5575458	e m e
-0.6642105	e m i
-0.7269489	e m o
-0.8158771	e m u
-0.5068272	i m a
-0.59744	i m i
-0.7139252	i m o
-0.6203971	i m u
-0.5232699	o m a
-1.544178	o m e
-0.5383358	o m i
-0.4328666	o m o
-0.5660033	u m a
-0.7344461	u m e
-0.8256755	u m i
-0.4090753	u m u
-0.3946075	+ n a
-0.7790043	+ n e
-0.928435	+ n i
-0.766845	+ n o
-0.8489416	+ n u
-0.2619431	a n a
-1.034931	a n e
-0.8829215	a n i
-1.143343	a n o
-0.8018797	a n u
-0.7101521	e n a
-0.279565	e n e
-1.269649	e n i
-1.581261	e n o
-0.6994824	e n u
-0.2872005	i n a
-0.8943827	i n e
-0.6938573	i n i
-1.006793	i n o
-1.255965	i n u
-0.5157517	o n a
-0.9636891	o n e
-0.8037299	o n i
-0.486092	o n o
-0.9886385	o n u
-0.4005477	u n a
-1.046971	u n e
-0.8331076	u n i
-0.4396684	u n u
-0.8880959	+ o +
-1.558367	+ o N
-1.775096	+ o a
-2.232408	+ o f
-0.9360565	+ o h
-1.306696	+ o i
-1.051149	+ o k
-1.430083	+ o m
-1.08409	+ o n
-1.344671	+ o p
-0.4875537	+ o r
-1.213597	+ o t
-2.062838	+ o u
-2.233106	+ o w
-0.2639296	N o +
-1.025583	N o N
-1.547688	N o a
-2.145161	N o e
-1.184284	N o h
-1.146628	N o i
-1.088822	N o r
-1.088359	N o t
-1.748775	N o u
-0.1355376	a o +
-1.676182	a o N
-1.12716	a o a
-2.035093	a o e
-1.893959	a o i
-1.548094	a o k
-1.664441	a o n
-2.179537	a o p
-1.127373	a o r
-1.998072	a o t
-2.230142	a o w
-0.08275851	e o +
-1.435864	e o a
-1.165581	e o i
-0.232909	f o a
-0.4650491	h o +
-1.56017	h o N
-1.249606	h o a
-1.468457	h o e
-1.374332	h o h
-1.592554	h o i
-1.112305	h o k
-2.250092	h o m
-1.295105	h o n
-1.296698	h o p
-0.7173985	h o r
-1.629641	h o t
-1.139994	h o u
-0.1385771	i o +
-1.670633	i o a
-0.9827311	i o i
-1.546375	i o k
-1.680122	i o n
-1.080561	i o r
-0.2384952	k o +
-2.62042	k o N
-1.80298	k o a
-1.863248	k o e
-2.388049	k o f
-1.409713	k o h
-1.591369	k o i
-1.384706	k o k
-1.849539	k o m
-1.507378	k o n
-1.569935	k o p
-0.8030109	k o r
-1.459217	k o t
-1.793203	k o u
-0.4366632	m o +
-2.405908	m o N
-1.170657	m o a
-1.065584	m o e
-1.284215	m o h
-1.949027	m o i
-0.9663716	m o k
-1.26386	m o m
-1.33448	m o n
-1.026771	m o r
-1.183199	m o t
-1.369442	m o u
-0.2871916	n o +
-2.11439	n o N
-1.152452	n o a
-0.944977	n o h
-1.464914	n o i
-1.306374	n o k
-0.929145	n o n
-1.900139	n o p
-1.557162	n o r
-1.493728	n o t
-1.890977	n o u
-2.319107	n o w
-0.4178859	p o +
-1.848918	p o N
-1.505711	p o a
-1.411735	p o h
-1.470311	p o i
-0.9566221	p o k
-1.311623	p o n
-1.459738	p o p
-0.8337054	p o r
-1.279454	p o t
-0.9727101	p o u
-0.2010444	r o +
-1.556772	r o N
-0.9933769	r o a
-2.868188	r o e
-1.394222	r o h
-1.674915	r o i
-1.57997	r o k
-2.061059	r o m
-1.921492	r o n
-1.948913	r o p
-1.098595	r o r
-1.686465	r o t
-1.757904	r o u
-2.733004	r o w
-0.4203831	t o +
-1.576809	t o N
-1.521649	t o a
-1.965289	t o e
-0.9494298	t o h
-1.250029	t o i
-1.025329	t o k
-2.037799	t o m
-1.646276	t o n
-1.589613	t o p
-0.8233606	t o r
-1.224867	t o t
-1.647038	t o u
-0.5206642	w o n
-0.4368442	+ p a
-1.036479	+ p e
-0.941292	+ p i
-0.6939583	+ p o
-0.6489831	+ p u
-0.2606837	a p a
-1.020086	a p e
-1.072999	a p i
-0.9103687	a p o
-0.8285989	a p u
-0.3913149	e p a
-0.3787162	e p e
-1.590933	e p i
-1.107394	e p o
-1.142732	e p u
-0.6412244	i p a
-1.734974	i p e
-0.3879294	i p i
-0.8071531	i p o
-0.7260528	i p u
-0.7220479	o p a
-0.5510989	o p e
-0.841013	o p i
-0.6734751	o p o
-0.7621706	o p u
-0.6504716	u p a
-0.8067445	u p e
-1.477988	u p i
-1.063135	u p o
-0.3005362	u p u
-0.4355696	+ r a
-0.7376227	+ r e
-0.7769036	+ r i
-0.8377884	+ r o
-0.8653014	+ r u
-0.3296349	a r a
-0.8345957	a r e
-0.8270947	a r i
-0.9086622	a r o
-0.9560179	a r u
-0.7564446	e r a
-0.2282803	e r e
-1.224792	e r i
-0.8903382	e r o
-1.405248	e r u
-0.8860996	i r a
-1.322219	i r e
-0.1811511	i r i
-0.825963	i r o
-2.11227	i r u
-1.016626	o r a
-0.6501648	o r e
-0.9134063	o r i
-0.2983199	o r o
-1.293617	o r u
-0.7368502	u r a
-0.9442812	u r e
-0.5737794	u r i
-2.458386	u r o
-0.3696595	u r u
-0.4378334	+ t a
-1.344916	+ t e
-0.4475933	+ t i
-0.9669062	+ t o
-0.9044386	+ t u
-0.2601722	a t a
-1.116893	a t e
-0.8186209	a t i
-1.290245	a t o
-0.7789921	a t u
-0.8973895	e t a
-0.3804058	e t e
-0.6001756	e t i
-0.9994786	e t o
-0.9760984	e t u
-0.8117042	i t a
-0.9178689	i t e
-0.2408238	i t i
-0.9673543	i t o
-1.47551	i t u
-0.7798297	o t a
-1.034682	o t e
-0.5852578	o t i
-0.4289482	o t o
-0.9611806	o t u
-0.7111317	u t a
-0.8855069	u t e
-1.021816	u t i
-1.42393	u t o
-0.2655384	u t u
-1.051992	+ u +
-1.521809	+ u N
-1.089659	+ u a
-1.440126	+ u e
-1.495854	+ u f
-1.27009	+ u h
-1.5156	+ u i
-1.120633	+ u k
-1.271944	+ u m
-1.150868	+ u n
-1.238748	+ u p
-0.5720783	+ u r
-0.9137522	+ u t
-0.3239476	N u +
-1.468507	N u N
-1.473567	N u e
-1.290937	N u n
-0.8321875	N u r
-0.6626713	N u t
-0.0571723	a u +
-2.333811	a u N
-1.357499	a u a
-2.924362	a u e
-2.936724	a u f
-2.52239	a u h
-2.088339	a u i
-2.360571	a u k
-2.907063	a u m
-1.938741	a u n
-2.389546	a u p
-1.664082	a u r
-1.734582	a u t
-0.1229818	e u +
-0.7639765	e u a
-0.3427531	f u r
-0.5293801	f u t
-0.3285806	h u +
-1.514368	h u N
-0.7788019	h u a
-1.779545	h u e
-1.640914	h u h
-1.465481	h u i
-1.181655	h u k
-1.940824	h u m
-1.513083	h u n
-2.724359	h u p
-0.8782582	h u r
-1.750418	h u t
-0.1016437	i u +
-0.9429045	i u a
-1.63198	i u i
-1.563958	i u r
-1.6248	i u t
-0.239234	k u +
-1.511556	k u a
-2.19359	k u e
-2.669602	k u f
-1.52702	k u h
-1.430017	k u i
-1.348444	k u k
-1.528677	k u m
-1.741151	k u n
-1.544364	k u p
-0.7767864	k u r
-1.556258	k u t
-0.300354	m u +
-2.229237	m u N
-1.144472	m u a
-1.302477	m u h
-1.548938	m u i
-1.270708	m u k
-1.38336	m u m
-1.933456	m u n
-0.8390313	m u r
-1.081119	m u t
-0.2540459	n u +
-0.9900088	n u a
-0.6989765	n u i
-1.020891	n u k
-1.4987	n u m
-2.059608	n u n
-0.1156526	o u +
-2.172272	o u N
-1.199513	o u a
-1.798548	o u e
-1.84005	o u k
-2.169238	o u m
-1.453753	o u n
-1.181354	o u r
-1.860437	o u t
-0.2466413	p u +
-1.660408	p u N
-1.188935	p u a
-2.386331	p u e
-2.784566	p u f
-1.428926	p u h
-1.966889	p u i
-1.020073	p u k
-2.470633	p u m
-1.41069	p u n
-1.676363	p u p
-1.064037	p u r
-1.335032	p u t
-0.2354761	r u +
-1.861864	r u N
-0.6773495	r u a
-2.219309	r u e
-1.80806	r u h
-1.830298	r u i
-1.340568	r u k
-2.107218	r u m
-2.151747	r u n
-2.021736	r u p
-1.194237	r u r
-1.647833	r u t
-0.2291115	t u +
-2.09313	t u N
-0.8789303	t u a
-2.686849	t u e
-2.476253	t u f
-1.532176	t u h
-1.710384	t u i
-1.184244	t u k
-1.895498	t u m
-1.91626	t u n
-2.876135	t u o
-1.670895	t u p
-1.144238	t u r
-1.511408	t u t
-0.07145914	w u r
-0.1546012	+ w a
-0.6581219	+ w e
-1.14171	+ w i
-2.469941	+ w o
-2.373046	+ w u
-0.2067083	a w a
-0.4666203	a w e
-1.429963	a w i
-0.09501605	e w a
-0.7108253	e w e
-0.3614623	i w a
-0.2625507	i w i
-0.241712	o w a
-0.5788495	o w e
-0.7916929	o w i
-0.1396977	u w a

\end\
