
\data\
ngram 1=16
ngram 2=150
ngram 3=769

\1-grams:
-0.639433	+	-2.665345
-1.684794	N	-2.098991
-0.7006704	a	0
-1.355148	e	-1.953269
-1.614874	f	-2.168496
-1.39078	h	-2.391645
-1.069707	i	0
-1.206745	k	-2.575179
-1.675158	m	-2.108566
-1.661093	n	-2.122543
-1.325859	o	-2.011935
-1.514776	p	-2.268108
-1.271268	r	-2.510807
-1.244702	t	-2.537313
-1.280223	u	-2.089087
-1.970776	w	-1.815578

\2-grams:
-99	+ +
-1.381562	+ N	-1.767873
-1.291208	+ a	-1.388299
-2.232232	+ e	-0.7359532
-0.9942418	+ f	-2.15135
-0.9352972	+ h	-2.210076
-1.802891	+ i	-0.1446853
-0.9329736	+ k	-2.211818
-1.137	+ m	-2.009613
-1.486685	+ n	-1.664661
-1.903361	+ o	-0.4079108
-0.9626369	+ p	-2.182576
-1.012245	+ r	-2.133074
-0.7390385	+ t	-2.404665
-1.944969	+ u	0.2399546
-1.479391	+ w	-0.4450053
-99	N +
-0.1894378	N a	-1.114081
-1.88305	N e	-0.2808475
-0.6177596	N i	-1.358314
-1.152183	N o	-0.8054173
-1.614341	N u	-0.4021644
-0.2770522	a +
-1.383614	a N	-1.801053
-3.065432	a a
-1.804011	a e	-0.7543282
-2.593197	a f	-0.05044079
-1.525961	a h	-1.565755
-1.251007	a i	-0.5172622
-0.9188585	a k	-2.164899
-1.999798	a m	-0.6460252
-1.586294	a n	-1.507835
-2.018796	a o	-0.6930595
-1.8335	a p	-1.269539
-1.259439	a r	-1.827134
-1.527753	a t	-1.563547
-1.302055	a u	-0.9991093
-2.001001	a w	-0.6650785
-0.291501	e +
-1.843586	e N	-0.02335292
-1.248621	e a	-1.260126
-2.489473	e f	-0.4771212
-1.376475	e h	-1.176091
-1.29509	e i	-0.7249775
-1.156555	e k	-1.384713
-1.944196	e m	-0.6020484
-1.314273	e n	-0.73505
-2.242408	e o	-0.2880013
-2.000372	e p	-0.1841908
-0.8968716	e r	-1.544167
-1.458622	e t	-0.5504368
-2.449322	e u	-0.69897
-1.948656	e w	-0.4888261
-99	f +
-0.09295338	f a	-1.208664
-1.184234	f e	-0.5119057
-0.9358782	f i	-0.7624013
-2.357445	f o	-0.60206
-2.512923	f u	-0.4771213
-99	h +
-0.5707878	h a	-0.04911733
-0.9563676	h e	-0.5471488
-0.477376	h i	-0.620983
-0.8698853	h o	-1.13889
-0.8228237	h u	-1.290027
-0.2664605	i +
-1.903182	i N	-1.066945
-0.7171506	i a	-1.456624
-2.525952	i e	-0.3472838
-2.489119	i f	-0.69897
-1.551557	i h	-1.187608
-2.886103	i i	-0.4771213
-1.4351	i k	-1.296605
-2.126384	i m	-0.4301165
-1.343316	i n	-1.387424
-2.075227	i o	-0.6311377
-2.023825	i p	-0.281186
-1.264019	i r	-1.556303
-1.371756	i t	-1.35783
-2.115271	i u	-0.6733407
-2.177997	i w	-0.9777237
-99	k +
-0.2724258	k a	-0.5190485
-1.040602	k e	-0.7536466
-0.8437186	k i	-0.3192921
-0.8039884	k o	-0.3701817
-1.136607	k u	-1.167305
-99	m +
-0.2266145	m a	-0.6646832
-1.089692	m e	-0.8310883
-1.005269	m i	-0.253952
-0.8718459	m o	-0.9822706
-1.057318	m u	-0.6531942
-99	n +
-0.3372192	n a	-1.356287
-0.7343687	n e	-1.085051
-0.9676581	n i	-0.4592432
-0.9117644	n o	-0.5365276
-0.9170021	n u	-1.32222
-0.2999982	o +
-1.809965	o N	-0.9208171
-1.314273	o a	-0.7749612
-1.784818	o e	-0.5642813
-3.031013	o f
-1.220697	o h	-1.260132
-1.466163	o i	-0.6554186
-1.219192	o k	-1.260109
-1.850655	o m	-0.8846064
-1.40751	o n	-1.086376
-1.807272	o p	-0.7323771
-0.9359959	o r	-1.53407
-1.381382	o t	-1.107232
-1.444282	o u	-0.5857435
-99	p +
-0.4217775	p a	-0.8136848
-1.021509	p e	-0.6968631
-0.9400326	p i	-0.5393236
-0.7516111	p o	-1.240547
-0.636134	p u	-1.310802
-99	r +
-0.4781974	r a	-1.59584
-0.672946	r e	-0.3741398
-0.690709	r i	-0.4717407
-0.8438533	r o	-0.7656233
-0.9735929	r u	-0.7398671
-99	t +
-0.3819816	t a	-0.6187091
-1.124953	t e	-0.4200635
-0.6074614	t i	-0.7530416
-0.9780406	t o	-1.173939
-0.8061098	t u	-0.5669333
-0.22715	u +
-2.080207	u N	-1.146128
-0.9487512	u a	-1.144054
-2.269857	u e	-0.1907006
-3.083925	u f
-1.732789	u h	-0.6135193
-1.321607	u i	-0.884904
-1.371755	u k	-0.8039961
-1.965623	u m	-0.4079154
-1.620019	u n	-1.021189
-1.915291	u p	-0.759668
-1.070465	u r	-1.07076
-1.412466	u t	-0.6624113
-99	w +
-0.1453391	w a	-1.309988
-0.7206128	w e	-0.3821079
-1.126698	w i	-0.763428
-2.165055	w o
-2.413396	w u

\3-grams:
-0.238384	+ N a
-1.617728	+ N e
-0.5116341	+ N i
-1.309949	+ N o
-1.383311	+ N u
-0.1276112	a N a
-0.6791357	a N i
-1.484998	a N o
-1.91215	a N u
-0.1165617	e N a
-0.889777	e N i
-0.2028419	i N a
-0.7164809	i N i
-0.7508842	i N o
-0.5566136	o N a
-0.962833	o N i
-0.2157731	o N o
-0.01110706	u N a
-0.4715046	+ a +
-1.81492	+ a N
-1.769791	+ a e
-1.521765	+ a f
-1.110632	+ a h
-1.456048	+ a i
-0.9757432	+ a k
-1.710356	+ a m
-1.437922	+ a n
-1.77624	+ a o
-1.846988	+ a p
-0.8501236	+ a r
-1.08115	+ a t
-1.367434	+ a u
-1.558215	+ a w
-0.06181212	N a +
-2.229085	N a N
-2.282086	N a e
-1.892556	N a h
-1.593086	N a i
-1.698658	N a k
-2.102536	N a n
-1.518541	N a r
-2.09713	N a t
-1.874902	N a u
-0.01140084	e a +
-1.039429	f a +
-2.238889	f a N
-2.278894	f a e
-1.535156	f a i
-0.1017325	f a k
-1.769168	f a n
-2.073634	f a o
-1.647012	f a r
-1.656797	f a t
-0.4411672	h a +
-1.051812	h a N
-1.171666	h a e
-2.000401	h a h
-1.59129	h a i
-1.240975	h a k
-1.748939	h a m
-1.150627	h a n
-2.040385	h a o
-1.573084	h a p
-1.021609	h a r
-2.000633	h a t
-0.8410414	h a u
-1.919807	h a w
-0.01260309	i a +
-2.013784	i a k
-2.383622	i a o
-2.32145	i a r
-0.1683164	k a +
-2.125786	k a N
-2.658364	k a e
-1.676385	k a h
-0.9790075	k a i
-1.837247	k a k
-2.096586	k a m
-1.881004	k a n
-2.219321	k a o
-1.825331	k a p
-1.284905	k a r
-1.879188	k a t
-1.337983	k a u
-1.773492	k a w
-0.418256	m a +
-1.848957	m a N
-1.9702	m a e
-1.058723	m a h
-1.25733	m a i
-1.459169	m a k
-1.741794	m a m
-0.9895135	m a n
-1.51149	m a o
-1.167842	m a r
-0.9105135	m a t
-1.169012	m a u
-0.1552975	n a +
-1.622828	n a N
-1.994592	n a e
-1.768666	n a h
-1.74009	n a i
-1.186717	n a k
-1.88542	n a m
-1.376525	n a n
-2.173218	n a o
-2.158937	n a p
-1.823877	n a r
-1.768804	n a t
-1.47311	n a u
-1.496403	n a w
-0.1642351	o a +
-1.490338	o a i
-1.415333	o a k
-1.366604	o a n
-1.33965	o a r
-0.9050826	o a t
-0.367147	p a +
-1.903096	p a N
-1.299736	p a e
-1.587369	p a h
-1.20332	p a i
-1.169554	p a k
-1.320932	p a n
-1.65011	p a o
-1.254754	p a p
-0.9094502	p a r
-1.172772	p a t
-1.493638	p a u
-0.3115458	r a +
-0.8357184	r a N
-1.948159	r a e
-1.500965	r a h
-1.384281	r a i
-1.24105	r a k
-1.695051	r a m
-1.938281	r a n
-2.41273	r a o
-1.532279	r a p
-1.445925	r a r
-1.816869	r a t
-1.045597	r a u
-1.735915	r a w
-0.4442695	t a +
-0.8519154	t a N
-2.559315	t a a
-1.775142	t a e
-1.338581	t a h
-1.165243	t a i
-1.012501	t a k
-1.682621	t a m
-1.889512	t a n
-2.008821	t a o
-1.557225	t a p
-1.201696	t a r
-1.803584	t a t
-0.9349366	t a u
-0.06058908	u a +
-1.7719	u a e
-1.321772	u a k
-1.341798	u a r
-0.4430058	w a +
-1.991904	w a N
-1.303218	w a e
-1.002534	w a h
-0.5852091	w a i
-1.517213	w a k
-1.754579	w a n
-1.89572	w a o
-1.095576	w a r
-1.467169	w a t
-1.833034	w a u
-1.536703	w a w
-0.5566627	+ e +
-1.362016	+ e N
-1.290918	+ e a
-1.31394	+ e h
-0.6247057	+ e k
-1.198507	+ e m
-1.303432	+ e n
-0.7795064	+ e r
-1.32601	+ e t
-0.2262617	N e +
-0.6647413	N e r
-0.1755249	a e +
-1.299781	a e N
-1.136368	a e a
-1.640088	a e h
-1.630568	a e n
-0.8941753	a e r
-0.5154781	f e +
-0.9385405	f e a
-0.7316566	f e n
-1.437329	f e o
-0.6016129	f e r
-1.390583	f e t
-0.3121271	h e +
-1.067247	h e a
-1.235346	h e i
-0.9989212	h e k
-1.673823	h e m
-1.85457	h e o
-0.7466615	h e r
-1.786912	h e t
-0.1077703	i e +
-0.1744953	k e +
-1.926584	k e N
-1.705725	k e a
-1.523658	k e h
-1.712757	k e i
-1.318292	k e k
-1.237111	k e n
-1.103315	k e r
-1.242829	k e t
-0.5158209	m e +
-1.131373	m e a
-1.409074	m e h
-1.246731	m e i
-0.9639731	m e k
-1.462627	m e m
-0.7667755	m e n
-0.8243255	m e r
-1.265101	m e t
-0.26812	n e +
-1.788298	n e N
-1.247613	n e h
-0.7422132	n e i
-0.9205905	n e k
-1.194479	n e t
-0.06214902	o e +
-0.4457839	p e +
-1.683217	p e f
-1.457166	p e h
-1.25032	p e i
-0.8545898	p e k
-0.9310957	p e n
-1.139973	p e p
-0.8368621	p e r
-1.466462	p e t
-0.2657338	r e +
-1.761443	r e N
-1.355507	r e a
-1.361082	r e h
-1.21723	r e i
-1.408491	r e k
-1.764359	r e m
-1.615415	r e n
-2.235795	r e o
-2.223494	r e p
-0.8746802	r e r
-1.576755	r e t
-1.434707	r e w
-0.2791204	t e +
-0.853417	t e a
-1.408753	t e h
-1.487394	t e i
-1.315727	t e k
-1.269132	t e n
-0.9057078	t e r
-0.1644088	u e +
-0.5760509	w e +
-1.448393	w e a
-0.6983592	w e h
-1.18548	w e k
-1.315132	w e n
-1.535131	w e p
-0.6459976	w e r
-1.054707	w e t
-0.0791543	+ f a
-1.193675	+ f e
-1.020218	+ f i
-2.369745	+ f o
-2.545683	+ f u
-0.6096572	a f a
-0.1636854	a f i
-0.2200858	e f a
-0.449597	e f e
-0.4419346	i f a
-0.2053851	i f i
-0.533108	+ h a
-0.9515829	+ h e
-0.507661	+ h i
-0.826869	+ h o
-0.868073	+ h u
-0.4563143	a h a
-1.857794	a h e
-0.3975526	a h i
-1.279182	a h o
-0.7365199	a h u
-0.8710269	e h a
-0.3900096	e h e
-0.7238235	e h i
-0.5849849	e h u
-0.7950584	i h a
-1.070061	i h e
-0.2082848	i h i
-1.001432	i h o
-1.446862	i h u
-0.8676091	o h a
-0.8270109	o h e
-0.7640919	o h i
-0.4722616	o h o
-0.6859967	o h u
-1.030716	u h a
-0.2322248	u h i
-0.5839397	u h u
-0.8617732	+ i +
-1.224877	+ i N
-0.8944443	+ i a
-1.213663	+ i h
-1.431736	+ i k
-0.639149	+ i n
-0.857679	+ i r
-0.8885742	+ i t
-1.295303	+ i w
-0.3704562	N i +
-0.2501262	N i a
-0.08916445	a i +
-1.831211	a i N
-1.211763	a i a
-1.451871	a i h
-2.150079	a i k
-1.61009	a i n
-2.219925	a i o
-1.974949	a i r
-1.993556	a i t
-2.224694	a i w
-0.09260327	e i +
-1.527485	e i h
-1.348417	e i n
-1.492448	e i r
-1.507995	e i t
-0.5279467	f i +
-1.648336	f i N
-1.401861	f i a
-1.27163	f i f
-1.189533	f i o
-0.6408908	f i r
-0.758751	f i t
-1.015568	f i u
-0.3209061	h i +
-2.00699	h i N
-0.4695084	h i a
-2.252495	h i h
-1.409453	h i k
-1.334313	h i n
-1.840347	h i o
-2.13176	h i p
-1.557864	h i r
-1.74826	h i t
-2.015012	h i w
-0.1363203	i i a
-0.1903333	k i +
-1.950048	k i N
-1.348489	k i a
-1.478975	k i h
-1.710314	k i k
-1.83851	k i m
-1.097005	k i n
-2.125915	k i o
-1.134512	k i r
-1.318414	k i t
-1.961417	k i w
-0.396843	m i +
-0.9693664	m i a
-0.99683	m i h
-0.8399548	m i n
-0.9284232	m i r
-1.126359	m i t
-0.1637326	n i +
-1.331823	n i a
-1.042588	n i h
-1.380584	n i k
-1.370559	n i n
-1.52608	n i t
-1.587325	n i u
-0.1121479	o i +
-0.7731423	o i a
-0.3794847	p i +
-1.471393	p i a
-1.096871	p i h
-0.907086	p i k
-1.674652	p i n
-1.45224	p i p
-0.7734339	p i r
-1.090183	p i t
-1.576375	p i u
-0.219373	r i +
-1.573954	r i N
-1.009119	r i a
-1.929994	r i e
-1.519811	r i h
-1.24621	r i k
-1.627824	r i m
-1.976047	r i n
-1.826227	r i p
-1.263273	r i r
-1.291174	r i t
-1.922995	r i u
-0.4033312	t i +
-0.4279739	t i a
-2.331386	t i f
-2.001482	t i h
-1.202499	t i k
-2.150508	t i m
-1.421636	t i n
-2.317331	t i o
-1.681334	t i p
-1.418554	t i r
-1.39714	t i t
-0.09890193	u i +
-0.9048742	u i a
-1.572592	u i h
-1.546636	u i r
-0.2394961	w i +
-1.123225	w i k
-0.9536252	w i n
-1.105944	w i r
-0.9555644	w i t
-0.3428099	+ k a
-1.122065	+ k e
-0.8472289	+ k i
-0.6416133	+ k o
-1.000186	+ k u
-0.1113541	a k a
-1.458138	a k e
-0.9734038	a k i
-1.212783	a k o
-1.624241	a k u
-0.6041035	e k a
-0.22813	e k e
-1.005713	e k i
-1.236405	e k o
-0.5382044	i k a
-1.45714	i k e
-0.3451668	i k i
-0.7218193	i k o
-1.468642	i k u
-0.7117999	o k a
-0.8636846	o k e
-0.8546718	o k i
-0.3277478	o k o
-1.229467	o k u
-0.754549	u k a
-0.7284367	u k e
-0.7529629	u k i
-0.3608864	u k u
-0.1939166	+ m a
-1.135471	+ m e
-1.050467	+ m i
-0.865365	+ m o
-1.210963	+ m u
-0.2335041	a m a
-1.1688	a m e
-0.9280263	a m o
-0.6845729	a m u
-0.6049132	e m a
-0.6569162	e m e
-0.6483998	e m i
-0.8742552	e m o
-0.7647014	e m u
-0.4388049	i m a
-0.4927793	i m i
-0.6333299	i m u
-0.3713732	o m a
-0.6377485	o m i
-0.4923217	o m o
-0.4545275	u m a
-0.4573902	u m e
-0.6836758	u m u
-0.4079236	+ n a
-0.6567089	+ n e
-1.119616	+ n i
-0.8371093	+ n o
-0.7769651	+ n u
-0.1564457	a n a
-1.168535	a n e
-1.044302	a n i
-1.325291	a n o
-1.013554	a n u
-0.582644	e n a
-0.3020023	e n e
-1.29626	e n i
-0.7804418	e n u
-0.3282043	i n a
-0.7870329	i n e
-0.6791618	i n i
-0.8928835	i n o
-1.529419	i n u
-0.4778312	o n a
-0.9451155	o n e
-1.236491	o n i
-0.3768755	o n o
-1.122072	o n u
-0.3481661	u n a
-1.050682	u n e
-0.648695	u n i
-0.6462469	u n u
-0.6687117	+ o +
-0.7427155	+ o h
-1.163571	+ o k
-1.654917	+ o m
-0.9316801	+ o n
-1.651371	+ o p
-0.6411614	+ o r
-1.061876	+ o t
-0.1523021	N o +
-1.062575	N o a
-0.9766278	N o i
-1.346242	N o t
-0.1864811	a o +
-1.439317	a o a
-1.450108	a o n
-0.6627699	a o r
-0.2593557	e o +
-0.6772525	e o i
-0.117974	f o a
-0.4234498	h o +
-1.910161	h o N
-1.2263	h o a
-1.338332	h o e
-1.573237	h o h
-1.516902	h o i
-1.027937	h o k
-1.631328	h o m
-1.274733	h o n
-1.244142	h o p
-0.8635731	h o r
-1.847984	h o t
-1.157078	h o u
-0.09009717	i o +
-1.00958	i o r
-0.2444047	k o +
-1.604655	k o a
-2.141697	k o e
-1.381318	k o h
-1.273038	k o i
-1.654575	k o k
-1.774168	k o m
-1.673863	k o n
-1.982345	k o p
-0.8307813	k o r
-1.198107	k o t
-1.836425	k o u
-0.3486827	m o +
-1.243096	m o a
-0.9752011	m o e
-1.425776	m o h
-0.9998335	m o k
-1.365162	m o m
-1.33968	m o n
-1.192776	m o r
-1.337287	m o t
-1.342833	m o u
-0.1870072	n o +
-1.567479	n o a
-0.7916353	n o h
-1.548843	n o k
-1.428918	n o n
-1.347548	n o r
-0.420927	p o +
-1.42864	p o a
-1.492238	p o h
-1.319287	p o i
-0.9949458	p o k
-1.37183	p o n
-1.906929	p o p
-0.8398595	p o r
-1.081718	p o t
-0.9317818	p o u
-0.1886935	r o +
-1.20595	r o N
-1.01481	r o a
-1.499665	r o h
-1.654175	r o i
-1.559735	r o k
-2.05108	r o m
-1.847118	r o n
-1.330845	r o r
-1.734307	r o t
-1.740847	r o u
-0.3765617	t o +
-1.94511	t o N
-1.622176	t o a
-1.780841	t o e
-0.8936641	t o h
-1.551851	t o i
-0.9301568	t o k
-1.784917	t o m
-1.266254	t o n
-1.664282	t o p
-0.9552335	t o r
-1.630726	t o t
-1.550023	t o u
-0.4191467	+ p a
-1.027225	+ p e
-0.9490427	+ p i
-0.7144047	+ p o
-0.6582635	+ p u
-0.2973732	a p a
-1.157187	a p e
-1.035298	a p i
-0.9316207	a p o
-0.6640856	a p u
-0.3580203	e p a
-0.86155	e p e
-0.6366308	e p u
-0.7728066	i p a
-0.481303	i p i
-0.8729123	i p o
-0.5007076	i p u
-0.5341116	o p a
-0.692913	o p e
-0.8782051	o p i
-0.9710904	o p o
-0.5767131	o p u
-0.8158586	u p a
-0.8327248	u p e
-0.9289705	u p o
-0.2503127	u p u
-0.3946544	+ r a
-0.6793926	+ r e
-0.7673399	+ r i
-0.9885352	+ r o
-0.9423925	+ r u
-0.3231362	a r a
-0.8182436	a r e
-0.7937911	a r i
-0.9165706	a r o
-1.041593	a r u
-0.6908258	e r a
-0.2559899	e r e
-1.28787	e r i
-0.8003022	e r o
-1.500207	e r u
-0.8094731	i r a
-1.32271	i r e
-0.2098744	i r i
-0.7505797	i r o
-0.8409583	o r a
-0.6412444	o r e
-0.8013236	o r i
-0.3834763	o r o
-1.253842	o r u
-0.6455823	u r a
-0.9980885	u r e
-0.5331408	u r i
-0.4340566	u r u
-0.3501633	+ t a
-1.215203	+ t e
-0.622025	+ t i
-0.9622726	+ t o
-0.8395022	+ t u
-0.2664876	a t a
-1.2065	a t e
-0.8963168	a t i
-1.283544	a t o
-0.6627713	a t u
-0.8578525	e t a
-0.4676457	e t e
-0.3605419	e t i
-1.26331	e t u
-0.8507577	i t a
-0.7478075	i t e
-0.2992466	i t i
-0.9590948	i t o
-1.165848	i t u
-0.6279268	o t a
-1.430519	o t e
-0.5000864	o t i
-0.4938771	o t o
-1.044149	o t u
-0.475646	u t a
-1.443883	u t e
-1.024739	u t i
-0.2908666	u t u
-0.7361854	+ u +
-1.031526	+ u a
-1.608692	+ u h
-1.077091	+ u i
-1.214567	+ u k
-1.462014	+ u m
-1.233797	+ u n
-0.576929	+ u r
-0.8286145	+ u t
-0.2629379	N u +
-0.6412548	N u r
-0.9453593	N u t
-0.05645349	a u +
-2.172977	a u N
-1.210914	a u a
-2.1045	a u i
-1.86507	a u n
-2.048231	a u r
-1.851653	a u t
-0.03689998	e u +
-0.1677713	f u t
-0.3459114	h u +
-1.679041	h u N
-0.6975775	h u a
-1.586423	h u e
-1.786923	h u h
-1.12936	h u i
-1.755392	h u k
-1.570714	h u n
-0.8775703	h u r
-1.484748	h u t
-0.03924751	i u +
-0.2646227	k u +
-1.380194	k u a
-1.54562	k u h
-1.190653	k u i
-1.782631	k u k
-1.315555	k u m
-1.817094	k u n
-1.552258	k u p
-0.8084269	k u r
-1.243719	k u t
-0.3072906	m u +
-1.038414	m u a
-1.279852	m u k
-0.6307202	m u r
-0.9977569	m u t
-0.4141248	n u +
-0.9051588	n u a
-0.4032623	n u i
-1.068763	n u k
-0.1050948	o u +
-1.339503	o u a
-0.9403073	o u r
-0.30483	p u +
-2.031735	p u N
-0.985988	p u a
-2.038507	p u e
-1.559544	p u h
-1.949999	p u i
-1.062876	p u k
-1.115045	p u n
-1.735844	p u p
-1.031304	p u r
-1.163943	p u t
-0.195886	r u +
-1.771079	r u N
-0.7022606	r u a
-1.75696	r u h
-1.718884	r u i
-1.389383	r u k
-1.767557	r u m
-1.492899	r u r
-1.882248	r u t
-0.2028316	t u +
-0.9001496	t u a
-1.438408	t u h
-1.791583	t u i
-1.136096	t u k
-1.83236	t u m
-1.817355	t u n
-1.53687	t u p
-1.303043	t u r
-2.062352	t u t
-0.1340826	+ w a
-0.7183248	+ w e
-1.213506	+ w i
-2.062676	+ w o
-0.1544418	a w a
-0.5545482	a w e
-0.0420501	e w a
-0.3041881	i w a
-0.3173613	i w i

\end\
