
\data\
ngram 1=16
ngram 2=150
ngram 3=801

\1-grams:
-0.6403964	+	-2.736036
-1.686071	N	-2.169085
-0.700203	a	0
-1.351738	e	-2.027779
-1.606791	f	-2.247974
-1.393706	h	-2.46029
-1.074501	i	0
-1.202295	k	-2.651277
-1.677866	m	-2.177246
-1.674396	n	-2.1807
-1.320552	o	-2.088386
-1.506444	p	-2.347914
-1.275535	r	-2.578169
-1.242137	t	-2.611523
-1.281321	u	-2.159297
-1.968568	w	-1.88874

\2-grams:
-99	+ +
-1.38152	+ N	-1.837685
-1.300401	+ a	-1.448462
-2.216045	+ e	-0.2299838
-0.9855825	+ f	-2.230369
-0.9419522	+ h	-2.27435
-1.828385	+ i	-0.1999034
-0.9316844	+ k	-2.282372
-1.134461	+ m	-2.08201
-1.505035	+ n	-1.716039
-1.892098	+ o	-0.4576067
-0.960066	+ p	-2.254586
-1.025177	+ r	-2.190528
-0.7308843	+ t	-2.48215
-1.944639	+ u	0.03293133
-1.472528	+ w	-0.4518422
-99	N +
-0.1868177	N a	-0.9559946
-1.953055	N e	-0.2785874
-0.6190509	N i	-1.191948
-1.133745	N o	-0.5257126
-1.684456	N u	-0.4054168
-0.2774467	a +
-1.386607	a N	-1.869214
-3.060724	a a	-0.2134314
-1.820217	a e	-0.8059883
-2.612039	a f	-0.1046087
-1.497131	a h	-1.664454
-1.251129	a i	-0.6617424
-0.9164671	a k	-2.239803
-2.044026	a m	-0.6591854
-1.586864	a n	-1.577555
-2.027932	a o	-0.877761
-1.78616	a p	-1.383807
-1.25605	a r	-1.902241
-1.52837	a t	-1.63372
-1.313608	a u	-1.101269
-2.038419	a w	-0.7105085
-0.287693	e +
-1.836324	e N	-0.08273137
-1.23076	e a	-1.353775
-2.399645	e f	-0.6020602
-1.407233	e h	-1.217485
-1.338961	e i	-0.6661565
-1.158755	e k	-0.8014107
-1.917955	e m	-0.6812434
-1.344605	e n	-0.7790577
-2.216315	e o	-0.3701737
-2.014432	e p	-0.2275147
-0.8989373	e r	-1.61501
-1.434036	e t	-1.100472
-2.441559	e u	-0.7781513
-1.899331	e w	-1.041392
-99	f +
-0.09082054	f a	-1.253179
-1.167185	f e	-0.5903473
-0.9582899	f i	-0.8144783
-2.436531	f o	-0.60206
-2.433512	f u	-0.2163768
-99	h +
-0.556125	h a	-0.1171715
-0.9491554	h e	-1.161369
-0.4886298	h i	-0.6782808
-0.8891957	h o	-1.185022
-0.8124019	h u	-1.365494
-0.2670674	i +
-1.91917	i N	-1.113945
-0.704775	i a	-1.5347
-2.539321	i e	-0.3910057
-2.462579	i f	-0.7781512
-1.578266	i h	-1.225259
-2.841164	i i	-0.60206
-1.418718	i k	-1.376575
-2.15032	i m	-0.7958806
-1.354475	i n	-1.440946
-2.051867	i o	-0.4424155
-1.981141	i p	-0.3603145
-1.275723	i r	-1.610126
-1.411557	i t	-1.383859
-2.102177	i u	-1.09691
-2.133626	i w	-1.079181
-99	k +
-0.2765307	k a	-0.5779376
-1.02964	k e	-0.6241429
-0.8472461	k i	-0.5956733
-0.7972891	k o	-0.4402839
-1.126852	k u	-1.247989
-99	m +
-0.2337561	m a	-0.7340951
-1.082271	m e	-0.897014
-1.022391	m i	-0.1390756
-0.8184034	m o	-1.093422
-1.081998	m u	-0.4916995
-99	n +
-0.3393433	n a	-1.410199
-0.7454205	n e	-1.069031
-0.9742988	n i	-0.5058514
-0.9054385	n o	-0.6502434
-0.8917277	n u	-0.816741
-0.3065291	o +
-1.814752	o N	-0.985279
-1.306162	o a	-0.6782519
-1.720995	o e	-0.8157563
-3.105405	o f
-1.227771	o h	-1.326418
-1.469749	o i	-0.7195998
-1.205626	o k	-1.346408
-1.867274	o m	-0.435495
-1.419629	o n	-1.146109
-1.796193	o p	-0.8062091
-0.9169923	o r	-1.627023
-1.384474	o t	-1.175998
-1.444003	o u	-0.6644189
-99	p +
-0.4144308	p a	-0.8698701
-1.041608	p e	-0.5795239
-0.9348798	p i	-1.143015
-0.7607904	p o	-1.307496
-0.6348253	p u	-1.388366
-99	r +
-0.4812726	r a	-1.658678
-0.6770249	r e	-1.468721
-0.6900897	r i	-0.5657387
-0.8311746	r o	-1.384706
-0.9733897	r u	-1.324284
-99	t +
-0.3836256	t a	-0.65927
-1.103055	t e	-0.3603467
-0.6034039	t i	-0.8355476
-0.9795823	t o	-1.242011
-0.8173553	t u	-0.3929263
-0.2283109	u +
-2.035995	u N	-1.255273
-0.9602253	u a	-1.074182
-2.248814	u e	-0.1378201
-2.907468	u f
-1.698911	u h	-0.703904
-1.338255	u i	-0.9339997
-1.324742	u k	-0.9184692
-1.945405	u m	-0.7958797
-1.627073	u n	-1.07918
-1.868313	u p	-0.3493188
-1.075431	u r	-1.140941
-1.435995	u t	-0.704505
-99	w +
-0.1595808	w a	-1.366422
-0.6780349	w e	-0.6255707
-1.104535	w i	-0.8450978
-2.077299	w o
-2.486787	w u

\3-grams:
-0.241537	+ N a
-1.688018	+ N e
-0.5104256	+ N i
-1.206805	+ N o
-1.453651	+ N u
-0.1218168	a N a
-0.6862351	a N i
-1.552529	a N o
-1.982358	a N u
-0.1174626	e N a
-0.8334896	e N i
-0.193973	i N a
-0.7636162	i N i
-0.7324983	i N o
-0.5619649	o N a
-0.8917121	o N i
-0.2263526	o N o
-0.008517887	u N a
-0.4601716	+ a +
-1.688983	+ a N
-1.830009	+ a e
-1.509116	+ a f
-1.062257	+ a h
-1.483104	+ a i
-1.002918	+ a k
-1.770855	+ a m
-1.466271	+ a n
-1.663305	+ a o
-1.764218	+ a p
-0.8774001	+ a r
-1.12674	+ a t
-1.351777	+ a u
-1.577502	+ a w
-0.06235055	N a +
-2.147921	N a N
-2.352319	N a e
-1.822908	N a h
-1.662793	N a i
-1.715443	N a k
-2.171164	N a n
-1.496138	N a r
-2.052046	N a t
-1.872666	N a u
-0.3744998	a a r
-0.009175315	e a +
-1.054281	f a +
-2.319567	f a N
-2.241392	f a e
-1.526807	f a i
-0.1027165	f a k
-1.707067	f a n
-2.076507	f a o
-1.615602	f a r
-1.649064	f a t
-2.450625	f a u
-0.4307572	h a +
-1.054379	h a N
-1.199301	h a e
-1.744292	h a h
-1.582966	h a i
-1.279231	h a k
-1.764621	h a m
-1.12128	h a n
-2.000979	h a o
-1.652121	h a p
-1.040191	h a r
-2.080941	h a t
-0.8566571	h a u
-1.830071	h a w
-0.0119853	i a +
-2.010385	i a k
-2.290906	i a o
-2.399357	i a r
-0.1645191	k a +
-2.1971	k a N
-2.570031	k a e
-1.690052	k a h
-0.968764	k a i
-1.853042	k a k
-2.168433	k a m
-1.838561	k a n
-2.290604	k a o
-1.817665	k a p
-1.294688	k a r
-1.919121	k a t
-1.356773	k a u
-1.820247	k a w
-0.4340096	m a +
-1.908909	m a N
-1.938151	m a e
-1.037659	m a h
-1.260945	m a i
-1.432502	m a k
-1.745235	m a m
-0.9889719	m a n
-1.571232	m a o
-1.181266	m a r
-0.8598514	m a t
-1.168283	m a u
-0.1611673	n a +
-1.676931	n a N
-1.931836	n a e
-1.629669	n a h
-1.793982	n a i
-1.146421	n a k
-1.94072	n a m
-1.399074	n a n
-2.227662	n a o
-2.047225	n a p
-1.794646	n a r
-1.686208	n a t
-1.488859	n a u
-1.50988	n a w
-0.1602901	o a +
-1.565306	o a i
-1.481535	o a k
-1.330257	o a n
-1.417224	o a r
-0.9035927	o a t
-0.3637175	p a +
-1.987981	p a N
-1.318171	p a e
-1.626829	p a h
-1.234013	p a i
-1.159062	p a k
-1.315314	p a n
-1.734781	p a o
-1.209667	p a p
-0.8756456	p a r
-1.191348	p a t
-1.542986	p a u
-0.3045971	r a +
-0.8624415	r a N
-2.011604	r a e
-1.434758	r a h
-1.39345	r a i
-1.240191	r a k
-1.686672	r a m
-2.001195	r a n
-2.309099	r a o
-1.47789	r a p
-1.466835	r a r
-1.747355	r a t
-1.066992	r a u
-1.799291	r a w
-0.4625522	t a +
-0.8284541	t a N
-2.455368	t a a
-1.780926	t a e
-1.286047	t a h
-1.142826	t a i
-1.037205	t a k
-1.754241	t a m
-1.960713	t a n
-1.973076	t a o
-1.468197	t a p
-1.179483	t a r
-1.838494	t a t
-0.9398419	t a u
-0.05812122	u a +
-1.830032	u a e
-1.375352	u a k
-1.349637	u a r
-0.4528969	w a +
-2.048936	w a N
-1.325638	w a e
-1.024297	w a h
-0.5724403	w a i
-1.386628	w a k
-1.811058	w a n
-1.952491	w a o
-1.036255	w a r
-1.523633	w a t
-1.891373	w a u
-1.593744	w a w
-0.5830401	+ e +
-1.443627	+ e N
-1.355464	+ e a
-1.24277	+ e h
-0.6089708	+ e k
-1.161899	+ e m
-1.380647	+ e n
-0.8055685	+ e r
-1.397053	+ e t
-0.225365	N e +
-0.6650708	N e r
-0.179172	a e +
-1.351715	a e N
-0.9648226	a e a
-1.69648	a e h
-1.687452	a e n
-0.9464337	a e r
-0.4876307	f e +
-0.9591737	f e a
-0.7770613	f e n
-1.348406	f e o
-0.6018146	f e r
-1.314722	f e t
-0.3257455	h e +
-1.903105	h e N
-1.103658	h e a
-1.217304	h e i
-1.040998	h e k
-1.62303	h e m
-1.835251	h e n
-1.923966	h e o
-0.7284734	h e r
-1.703774	h e t
-1.930193	h e u
-1.907848	h e w
-0.09522032	i e +
-0.1672835	k e +
-2.007899	k e N
-1.675288	k e a
-1.607568	k e h
-1.797858	k e i
-1.310481	k e k
-1.281819	k e n
-1.102168	k e r
-1.248829	k e t
-0.4963755	m e +
-1.195253	m e a
-1.479751	m e h
-1.206587	m e i
-0.9690506	m e k
-1.358678	m e m
-0.8339311	m e n
-0.7671896	m e r
-1.328646	m e t
-0.2655739	n e +
-1.664679	n e N
-1.238593	n e h
-0.789768	n e i
-0.9139603	n e k
-1.785117	n e n
-1.239573	n e t
-0.05910262	o e +
-1.20634	o e a
-0.4507391	p e +
-1.565798	p e f
-1.513837	p e h
-1.236037	p e i
-0.8515736	p e k
-0.9523951	p e n
-1.14039	p e p
-0.8346865	p e r
-1.517113	p e t
-0.2452764	r e +
-1.757319	r e N
-1.34021	r e a
-2.30192	r e f
-1.396148	r e h
-1.259993	r e i
-1.411556	r e k
-1.824675	r e m
-1.678727	r e n
-2.295775	r e o
-2.285413	r e p
-0.9093173	r e r
-1.636473	r e t
-1.433725	r e w
-0.287744	t e +
-0.9014788	t e a
-1.427153	t e h
-1.580052	t e i
-1.291958	t e k
-1.30645	t e n
-0.866712	t e r
-1.50231	t e t
-0.1888862	u e +
-0.6135514	w e +
-1.211799	w e a
-0.7444218	w e h
-1.203638	w e k
-1.31046	w e n
-1.637499	w e p
-0.6523589	w e r
-0.9433423	w e t
-1.63146	w e w
-0.07639325	+ f a
-1.185867	+ f e
-1.050671	+ f i
-2.449145	+ f o
-2.449127	+ f u
-0.6542452	a f a
-0.1447765	a f i
-0.3440705	e f a
-0.2864994	e f e
-0.4142956	i f a
-0.2206344	i f i
-0.5198191	+ h a
-0.9446	+ h e
-0.5133791	+ h i
-0.8430116	+ h o
-0.8726253	+ h u
-0.4477403	a h a
-1.484969	a h e
-0.451799	a h i
-1.336453	a h o
-0.675458	a h u
-0.9104393	e h a
-0.3971235	e h e
-0.6957424	e h i
-0.5736339	e h u
-0.7975163	i h a
-1.107236	i h e
-0.1949275	i h i
-1.040884	i h o
-1.481778	i h u
-0.8672615	o h a
-0.8061904	o h e
-0.7552543	o h i
-0.4733033	o h o
-0.7078665	o h u
-0.8266314	u h a
-0.2645089	u h i
-0.5868185	u h u
-0.9034048	+ i +
-1.209707	+ i N
-0.8808208	+ i a
-1.200613	+ i h
-1.471475	+ i k
-0.6082829	+ i n
-0.8502212	+ i r
-0.9040074	+ i t
-1.336084	+ i w
-0.3646791	N i +
-0.2585943	N i a
-0.09005802	a i +
-1.901479	a i N
-1.223517	a i a
-1.52241	a i h
-1.961044	a i k
-2.293287	a i m
-1.48111	a i n
-2.288456	a i o
-1.942761	a i r
-2.069284	a i t
-2.29254	a i w
-0.09977332	e i +
-1.256013	e i a
-1.558204	e i h
-1.377868	e i n
-1.522695	e i r
-1.541342	e i t
-0.5085586	f i +
-1.701351	f i N
-1.448262	f i a
-1.244915	f i f
-1.175281	f i o
-0.6735675	f i r
-0.7616961	f i t
-0.9811139	f i u
-0.3260643	h i +
-2.063408	h i N
-0.4605601	h i a
-2.312317	h i h
-1.392206	h i k
-1.390449	h i n
-1.895723	h i o
-2.065589	h i p
-1.545773	h i r
-1.806855	h i t
-1.773898	h i w
-0.09727056	i i a
-0.1895703	k i +
-1.901144	k i N
-1.323504	k i a
-1.549412	k i h
-2.215748	k i i
-1.589994	k i k
-1.908456	k i m
-1.095947	k i n
-2.193934	k i o
-2.189465	k i p
-1.145621	k i r
-1.389432	k i t
-1.908045	k i w
-0.4114627	m i +
-0.9096398	m i a
-0.9416828	m i h
-1.531668	m i k
-0.889697	m i n
-0.9775359	m i r
-1.177085	m i t
-0.165015	n i +
-1.270317	n i a
-1.033586	n i h
-1.311582	n i k
-1.41818	n i n
-1.578528	n i t
-1.633182	n i u
-0.09369427	o i +
-0.8413717	o i a
-0.3691793	p i +
-1.36679	p i a
-1.131695	p i h
-0.9029322	p i k
-1.755251	p i n
-1.82313	p i o
-1.435067	p i p
-0.8099707	p i r
-1.126497	p i t
-1.532457	p i u
-0.2208196	r i +
-1.55406	r i N
-1.013645	r i a
-1.899592	r i e
-1.546311	r i h
-1.230367	r i k
-1.693627	r i m
-1.937517	r i n
-1.691104	r i p
-1.245231	r i r
-1.333887	r i t
-1.893584	r i u
-0.410113	t i +
-0.4068381	t i a
-2.23411	t i f
-2.07985	t i h
-1.233432	t i k
-2.105739	t i m
-1.472782	t i n
-2.103262	t i o
-1.711814	t i p
-1.446084	t i r
-1.427548	t i t
-0.09268808	u i +
-0.9133744	u i a
-1.625447	u i h
-1.599174	u i r
-0.2280274	w i +
-1.203494	w i k
-1.03607	w i n
-0.9141489	w i r
-1.039757	w i t
-0.3532236	+ k a
-1.122131	+ k e
-0.8496569	+ k i
-0.6266332	+ k o
-0.9850013	+ k u
-0.1076582	a k a
-1.454189	a k e
-1.01008	a k i
-1.223711	a k o
-1.569298	a k u
-0.6036478	e k a
-0.2316063	e k e
-1.030877	e k i
-1.228354	e k o
-0.5617292	i k a
-1.535591	i k e
-0.3374742	i k i
-0.6990173	i k o
-1.434733	i k u
-0.7305064	o k a
-0.8559165	o k e
-0.7732315	o k i
-0.3394814	o k o
-1.315078	o k u
-0.7741051	u k a
-0.6169376	u k e
-0.7202457	u k i
-0.4198067	u k u
-0.1979302	+ m a
-1.153531	+ m e
-1.069442	+ m i
-0.8183856	+ m o
-1.231862	+ m u
-0.2486889	a m a
-1.194045	a m e
-0.8494185	a m o
-0.6800654	a m u
-0.6883464	e m a
-0.5731017	e m e
-0.6418371	e m i
-0.8050733	e m o
-0.8469511	e m u
-0.4278214	i m a
-0.5298895	i m i
-0.98169	i m o
-0.6711168	i m u
-0.4170494	o m a
-0.7005896	o m i
-0.4487464	o m o
-0.5325345	u m a
-0.4280132	u m e
-1.021381	u m i
-0.6711168	u m u
-0.42691	+ n a
-0.6675727	+ n e
-1.102574	+ n i
-0.817041	+ n o
-0.7462002	+ n u
-0.1516678	a n a
-1.16592	a n e
-1.085277	a n i
-1.394414	a n o
-0.9832857	a n u
-0.5792322	e n a
-0.307868	e n e
-1.230346	e n i
-0.7846898	e n u
-0.3250397	i n a
-0.8410573	i n e
-0.7000653	i n i
-0.8255561	i n o
-1.473214	i n u
-0.4596902	o n a
-0.8495258	o n e
-1.297264	o n i
-0.4038487	o n o
-1.178433	o n u
-0.4063651	u n a
-1.007405	u n e
-0.6234084	u n i
-0.583871	u n u
-0.704158	+ o +
-1.650664	+ o a
-0.7277932	+ o h
-1.122579	+ o k
-1.729423	+ o m
-0.9690579	+ o n
-1.560414	+ o p
-0.6258723	+ o r
-1.043471	+ o t
-0.2018879	N o +
-1.149403	N o a
-0.8748215	N o i
-1.269937	N o t
-0.1855836	a o +
-1.536788	a o N
-1.339283	a o a
-1.509357	a o n
-0.6892368	a o r
-0.2052142	e o +
-0.756608	e o i
-0.1178438	f o a
-0.4271738	h o +
-1.793818	h o N
-1.232812	h o a
-1.332846	h o e
-1.620386	h o h
-1.563194	h o i
-1.001975	h o k
-1.678044	h o m
-1.238357	h o n
-1.289919	h o p
-0.8743993	h o r
-1.750295	h o t
-1.138454	h o u
-0.1397868	i o +
-1.127483	i o k
-1.075502	i o r
-0.2411739	k o +
-1.58297	k o a
-1.939337	k o e
-1.369931	k o h
-1.326965	k o i
-1.732293	k o k
-1.77768	k o m
-1.692422	k o n
-1.943667	k o p
-0.8007738	k o r
-1.255978	k o t
-1.91581	k o u
-0.3863876	m o +
-1.218701	m o a
-0.8841719	m o e
-1.431432	m o h
-1.110119	m o k
-1.476868	m o m
-1.362598	m o n
-1.08437	m o r
-1.223451	m o t
-1.226559	m o u
-0.1838979	n o +
-1.475684	n o a
-0.8215907	n o h
-1.650141	n o i
-1.604504	n o k
-1.375101	n o n
-1.401161	n o r
-0.4327992	p o +
-1.432775	p o a
-1.427147	p o h
-1.293016	p o i
-0.916158	p o k
-1.439409	p o n
-1.973065	p o p
-0.8570834	p o r
-1.11962	p o t
-0.9208233	p o u
-0.1899096	r o +
-1.254812	r o N
-1.007634	r o a
-1.476663	r o h
-1.657248	r o i
-1.634756	r o k
-2.128858	r o m
-1.814888	r o n
-2.12308	r o p
-1.247655	r o r
-1.723916	r o t
-1.817323	r o u
-0.3902683	t o +
-2.01377	t o N
-1.604565	t o a
-1.844525	t o e
-0.944921	t o h
-1.620367	t o i
-0.8964873	t o k
-1.641992	t o m
-1.295529	t o n
-1.563085	t o p
-0.8851187	t o r
-1.6128	t o t
-1.618224	t o u
-0.4177782	+ p a
-1.043328	+ p e
-0.9474305	+ p i
-0.7190492	+ p o
-0.6507027	+ p u
-0.2637321	a p a
-1.272935	a p e
-1.10138	a p i
-0.9732972	a p o
-0.6651615	a p u
-0.3503984	e p a
-0.7626675	e p e
-0.682024	e p u
-0.7158526	i p a
-0.4233744	i p i
-0.8690125	i p o
-0.5944467	i p u
-0.5083984	o p a
-0.6327419	o p e
-0.8442006	o p i
-1.047674	o p o
-0.6502877	o p u
-0.8832284	u p a
-0.9387587	u p e
-0.8897111	u p o
-0.2426251	u p u
-0.3942421	+ r a
-0.7101757	+ r e
-0.7589015	+ r i
-0.9561306	+ r o
-0.9325016	+ r u
-0.316202	a r a
-0.8012752	a r e
-0.8014899	a r i
-0.9313069	a r o
-1.075519	a r u
-0.6942437	e r a
-0.2529737	e r e
-1.233939	e r i
-0.8122937	e r o
-1.571017	e r u
-0.8634808	i r a
-1.317791	i r e
-0.2001247	i r i
-0.741042	i r o
-0.9006254	o r a
-0.6098999	o r e
-0.8209056	o r i
-0.3831503	o r o
-1.194987	o r u
-0.6337407	u r a
-1.031926	u r e
-0.5372263	u r i
-0.4275329	u r u
-0.3492248	+ t a
-1.216769	+ t e
-0.6150987	+ t i
-0.968833	+ t o
-0.8484409	+ t u
-0.2752784	a t a
-1.092029	a t e
-0.86637	a t i
-1.234693	a t o
-0.7116634	a t u
-0.8926275	e t a
-0.4120508	e t e
-0.4520859	e t i
-1.252296	e t o
-1.121606	e t u
-0.8768501	i t a
-0.7732748	i t e
-0.2817514	i t i
-0.951678	i t o
-1.192845	i t u
-0.6970339	o t a
-1.232164	o t e
-0.4904187	o t i
-0.5224144	o t o
-0.9324876	o t u
-0.5195792	u t a
-1.220425	u t e
-0.9470723	u t i
-0.2979308	u t u
-0.705538	+ u +
-1.046923	+ u a
-1.704526	+ u e
-1.71668	+ u f
-1.507967	+ u h
-1.14057	+ u i
-1.271804	+ u k
-1.523235	+ u m
-1.22138	+ u n
-1.683521	+ u p
-0.5725954	+ u r
-0.8916162	+ u t
-0.263203	N u +
-0.6416419	N u r
-0.9470072	N u t
-0.05719315	a u +
-2.230347	a u N
-1.227067	a u a
-2.015862	a u i
-2.164097	a u k
-1.924473	a u n
-2.108644	a u r
-1.747613	a u t
-0.03065102	e u +
-0.3823103	f u t
-0.3572653	h u +
-1.580725	h u N
-0.7210897	h u a
-1.661648	h u e
-1.649482	h u h
-1.149086	h u i
-1.491968	h u k
-1.646488	h u n
-0.8490774	h u r
-1.49823	h u t
-0.05193389	i u +
-1.051747	i u a
-0.2571401	k u +
-1.396965	k u a
-1.624721	k u h
-1.188829	k u i
-1.707214	k u k
-1.338771	k u m
-1.8985	k u n
-1.537397	k u p
-0.8191817	k u r
-1.232344	k u t
-0.3056114	m u +
-1.008444	m u a
-1.316222	m u k
-0.6460478	m u r
-1.042517	m u t
-0.3942993	n u +
-0.98518	n u a
-0.4414154	n u i
-1.000673	n u k
-0.08750667	o u +
-1.413352	o u a
-1.01199	o u r
-0.3075281	p u +
-1.816836	p u N
-0.9642876	p u a
-2.115458	p u e
-1.514879	p u h
-2.030975	p u i
-1.022858	p u k
-1.123121	p u n
-1.811813	p u p
-1.050907	p u r
-1.214827	p u t
-0.2007203	r u +
-1.834036	r u N
-0.7104838	r u a
-1.819129	r u h
-1.785341	r u i
-1.304193	r u k
-1.831048	r u m
-1.994799	r u p
-1.429935	r u r
-1.797111	r u t
-0.2058041	t u +
-0.9146432	t u a
-1.387313	t u h
-1.764854	t u i
-1.136878	t u k
-1.798571	t u m
-1.786305	t u n
-1.461441	t u p
-1.362805	t u r
-2.121861	t u t
-0.1472968	+ w a
-0.6686494	+ w e
-1.232499	+ w i
-1.964021	+ w o
-0.1596956	a w a
-0.5395968	a w e
-0.07795909	e w a
-0.8084278	e w e
-0.3638048	i w a
-0.2610472	i w i

\end\
