
\data\
ngram 1=16
ngram 2=149
ngram 3=702

\1-grams:
-0.6388634	+	-2.532154
-1.68128	N	-1.969416
-0.7054409	a	0
-1.352486	e	-1.82347
-1.634115	f	-2.016198
-1.384027	h	-2.26482
-1.07015	i	0
-1.216877	k	-2.431355
-1.646952	m	-2.003462
-1.656613	n	-1.993877
-1.321437	o	-1.91543
-1.525064	p	-2.124506
-1.271838	r	-2.37658
-1.236681	t	-2.411621
-1.270011	u	-1.966324
-1.98231	w	-1.672097

\2-grams:
-99	+ +
-1.400087	+ N	-1.619076
-1.288368	+ a	-1.263409
-2.266301	+ e	-0.2034111
-1.01159	+ f	-0.5813696
-0.9217696	+ h	-2.090319
-1.820205	+ i	-0.1444315
-0.9367293	+ k	-2.075987
-1.112382	+ m	-1.901955
-1.464393	+ n	-1.55627
-1.924951	+ o	-0.3206816
-0.9722947	+ p	-2.0406
-1.013819	+ r	-1.999191
-0.7351832	+ t	-2.275304
-1.910253	+ u	0.1249
-1.501004	+ w	-0.4282939
-99	N +
-0.165979	N a	-1.05748
-1.874451	N e	-0.19655
-0.6979209	N i	-1.163103
-1.133871	N o	-0.7700771
-1.616519	N u	-0.3626375
-0.2793599	a +
-1.369355	a N	-1.678966
-2.929937	a a
-1.798671	a e	-0.6332993
-2.670159	a f	-0.5449162
-1.549737	a h	-1.408178
-1.250397	a i	-0.8556812
-0.9243232	a k	-2.021883
-1.939878	a m	-0.6053233
-1.55792	a n	-1.401374
-2.010899	a o	-0.8197756
-1.867616	a p	-1.107184
-1.269323	a r	-1.681453
-1.515099	a t	-1.440855
-1.286213	a u	-0.9808222
-1.977641	a w	-0.5803827
-0.2950329	e +
-1.761206	e N	-0.2389575
-1.214552	e a	-1.770852
-2.628808	e f
-1.369957	e h	-1.060698
-1.257027	e i	-0.5290601
-1.214874	e k	-1.204121
-1.985122	e m	-0.3508931
-1.352861	e n	-0.5739571
-2.172482	e o	-0.2388211
-1.904475	e p	-0.156823
-0.8998774	e r	-0.9405807
-1.409953	e t	-1.021189
-2.317824	e u	-0.69897
-2.037848	e w	-0.3005022
-99	f +
-0.09818253	f a	-1.361154
-1.156194	f e	-0.3117455
-0.9198059	f i	-0.6630796
-2.622263	f o
-2.359427	f u	-0.4771213
-99	h +
-0.5927473	h a	0.104739
-0.9850502	h e	-0.4918183
-0.4594184	h i	-0.8248459
-0.8457265	h o	-0.3235646
-0.8293923	h u	-1.16435
-0.2598138	i +
-1.826913	i N	-1.014243
-0.76446	i a	-1.351794
-2.392122	i e	-0.3491313
-2.549112	i f	-0.3486215
-1.549553	i h	-1.064494
-2.752697	i i	-0.4771212
-1.434292	i k	-1.170372
-2.122034	i m	-0.7533277
-1.342934	i n	-1.260044
-2.081564	i o	-0.5074663
-2.089507	i p	-0.4943266
-1.211561	i r	-1.477123
-1.371113	i t	-1.230519
-2.052373	i u	-1.230449
-2.127943	i w	-0.9030902
-99	k +
-0.2840058	k a	-1.708302
-1.053977	k e	-0.4944143
-0.8219286	k i	-0.3283932
-0.7933969	k o	-0.6159456
-1.108035	k u	-0.4803629
-99	m +
-0.2311605	m a	-0.7940301
-1.1089	m e	-0.3841193
-0.9587215	m i	-0.2171717
-0.8748124	m o	-0.6904217
-1.066259	m u	-0.5534455
-99	n +
-0.3426276	n a	-0.4553769
-0.7050821	n e	-0.9917627
-1.016836	n i	-0.4701926
-0.9276366	n o	-0.3917671
-0.8916593	n u	-1.224015
-0.2945952	o +
-1.767626	o N	-0.8450994
-1.317058	o a	-0.564127
-1.760399	o e	-0.6959188
-1.206321	o h	-1.152289
-1.437139	o i	-0.5744742
-1.252763	o k	-1.107283
-1.817381	o m	-0.8016319
-1.457831	o n	-0.4528707
-1.871382	o p	-0.5797911
-0.9698386	o r	-1.376554
-1.368957	o t	-0.4729909
-1.388921	o u	-0.5204278
-99	p +
-0.4255599	p a	-0.6982585
-1.002471	p e	-0.4368948
-0.9402364	p i	-0.6318213
-0.7618765	p o	-0.6846618
-0.6323909	p u	-0.7986255
-99	r +
-0.4659683	r a	-1.477125
-0.6772214	r e	-0.3701427
-0.6803509	r i	-0.6228874
-0.8600719	r o	-0.5088675
-1.006366	r u	-0.7842586
-99	t +
-0.3806274	t a	-0.5016162
-1.084375	t e	-0.4712445
-0.6445746	t i	-0.5384645
-0.9485079	t o	-0.2833849
-0.7961568	t u	-0.4369811
-0.2290159	u +
-2.162718	u N	-0.9542425
-0.9417686	u a	-0.9465377
-2.262213	u e	-0.1056592
-2.965696	u f
-1.76773	u h	-0.664372
-1.301347	u i	-0.7932106
-1.410122	u k	-0.6609341
-1.895771	u m	-0.7781511
-1.677375	u n	-0.6102885
-1.840015	u p	-0.5424317
-1.072965	u r	-1.419128
-1.374797	u t	-0.6033126
-99	w +
-0.1457968	w a	-0.6703609
-0.7353624	w e	-0.2639567
-1.129885	w i	-0.4269407
-2.021106	w o
-2.267774	w u

\3-grams:
-0.1832112	+ N a
-1.535107	+ N e
-0.6368002	+ N i
-1.346446	+ N o
-1.408459	+ N u
-0.1265197	a N a
-0.7035193	a N i
-1.418074	a N o
-1.790131	a N u
-0.09563303	e N a
-0.8858143	e N i
-0.1893098	i N a
-0.7430611	i N i
-0.7736562	i N o
-0.5406711	o N a
-0.9070036	o N i
-0.2351332	o N o
-0.01560414	u N a
-0.4760941	+ a +
-1.878133	+ a N
-1.644255	+ a e
-1.59225	+ a f
-1.108452	+ a h
-1.544865	+ a i
-0.9371032	+ a k
-1.648888	+ a m
-1.381852	+ a n
-1.821674	+ a o
-1.815726	+ a p
-0.8976685	+ a r
-1.087959	+ a t
-1.332937	+ a u
-1.477536	+ a w
-0.05627892	N a +
-2.15623	N a h
-1.581981	N a i
-1.657797	N a k
-2.157233	N a n
-1.535096	N a r
-1.995321	N a t
-1.968332	N a u
-0.003506274	e a +
-1.091606	f a +
-2.091399	f a N
-2.292093	f a e
-1.494022	f a i
-0.1010488	f a k
-1.658945	f a n
-2.135326	f a o
-1.603588	f a r
-1.657604	f a t
-0.4777301	h a +
-1.10304	h a N
-1.213258	h a e
-2.011844	h a h
-1.501732	h a i
-1.146132	h a k
-1.775827	h a m
-1.131025	h a n
-1.898402	h a o
-1.772593	h a p
-0.9367043	h a r
-1.857358	h a t
-0.8306345	h a u
-1.896798	h a w
-0.01451434	i a +
-1.948647	i a k
-2.20496	i a o
-0.1682437	k a +
-2.034887	k a N
-2.507452	k a e
-1.6961	k a h
-0.9922549	k a i
-1.916462	k a k
-2.14159	k a m
-1.930676	k a n
-2.066383	k a o
-1.846136	k a p
-1.313313	k a r
-1.879905	k a t
-1.289353	k a u
-1.703629	k a w
-0.4063667	m a +
-1.830026	m a N
-1.864612	m a e
-1.101756	m a h
-1.291812	m a i
-1.508663	m a k
-1.699725	m a m
-0.9653277	m a n
-1.528233	m a o
-1.194101	m a r
-0.9157134	m a t
-1.152641	m a u
-0.1563228	n a +
-1.626708	n a N
-1.995477	n a h
-1.612328	n a i
-1.208422	n a k
-1.874953	n a m
-1.35824	n a n
-2.034325	n a p
-1.697779	n a r
-1.989573	n a t
-1.434018	n a u
-1.413451	n a w
-0.1837697	o a +
-1.243891	o a n
-1.21972	o a r
-0.8900242	o a t
-0.3658668	p a +
-2.010846	p a N
-1.265809	p a e
-1.614393	p a h
-1.145755	p a i
-1.127211	p a k
-1.362932	p a n
-1.565408	p a o
-1.370002	p a p
-0.9311738	p a r
-1.203536	p a t
-1.43276	p a u
-0.3107374	r a +
-0.8130295	r a N
-1.905365	r a e
-1.530009	r a h
-1.398288	r a i
-1.231142	r a k
-1.616322	r a m
-1.981038	r a n
-2.29354	r a o
-1.47127	r a p
-1.454368	r a r
-1.815201	r a t
-1.095306	r a u
-1.911662	r a w
-0.453222	t a +
-0.8516101	t a N
-2.436846	t a a
-1.825256	t a e
-1.319493	t a h
-1.152002	t a i
-0.9867919	t a k
-1.590148	t a m
-1.815453	t a n
-2.12326	t a o
-1.58913	t a p
-1.281634	t a r
-1.721218	t a t
-0.930178	t a u
-0.05877239	u a +
-1.392263	u a k
-1.284547	u a r
-0.4120761	w a +
-1.85272	w a N
-1.244646	w a e
-1.096352	w a h
-0.5931821	w a i
-1.717758	w a k
-1.730136	w a n
-1.117865	w a r
-1.385591	w a t
-1.694046	w a u
-1.637288	w a w
-0.4932481	+ e +
-1.149907	+ e a
-1.179004	+ e h
-0.812108	+ e k
-1.235505	+ e m
-1.176204	+ e n
-0.7686046	+ e r
-0.2990218	N e +
-0.57807	N e r
-0.1870379	a e +
-1.175643	a e N
-1.343898	a e a
-1.517034	a e h
-1.5145	a e n
-0.8861684	a e r
-0.5276552	f e +
-0.991387	f e a
-0.77687	f e n
-0.5640028	f e r
-1.279602	f e t
-0.3479136	h e +
-0.958191	h e a
-1.361732	h e i
-0.9582095	h e k
-1.700235	h e m
-1.708509	h e o
-0.7159907	h e r
-0.1082827	i e +
-0.2017321	k e +
-1.693922	k e a
-1.464517	k e h
-1.559956	k e i
-1.229221	k e k
-1.301451	k e n
-1.099473	k e r
-1.094012	k e t
-0.4621135	m e +
-1.023311	m e a
-1.303942	m e h
-1.137423	m e i
-1.131167	m e k
-1.360444	m e m
-0.7569942	m e n
-0.9708402	m e r
-0.3133236	n e +
-1.690429	n e N
-1.153792	n e h
-0.6670312	n e i
-0.9988823	n e k
-1.099404	n e t
-0.04542214	o e +
-0.388479	p e +
-1.495811	p e h
-1.33018	p e i
-0.9994453	p e k
-1.071675	p e n
-1.028053	p e p
-0.7923486	p e r
-1.502582	p e t
-0.2569616	r e +
-1.626237	r e N
-1.347731	r e a
-1.487243	r e h
-1.223644	r e i
-1.428009	r e k
-1.924	r e m
-1.756844	r e n
-2.100604	r e o
-0.8561931	r e r
-1.489906	r e t
-1.511603	r e w
-0.2715796	t e +
-0.844084	t e a
-1.418386	t e h
-1.40613	t e i
-1.315517	t e k
-1.255319	t e n
-0.975993	t e r
-0.212236	u e +
-0.4920545	w e +
-1.307608	w e a
-0.7061322	w e h
-1.396998	w e p
-0.713159	w e r
-1.081902	w e t
-0.08371565	+ f a
-1.16479	+ f e
-0.9965412	+ f i
-2.394954	+ f u
-0.1254359	a f i
-0.2176748	i f i
-0.5433849	+ h a
-0.9799031	+ h e
-0.49791	+ h i
-0.8086087	+ h o
-0.8666447	+ h u
-0.4811049	a h a
-1.706239	a h e
-0.3689369	a h i
-1.219972	a h o
-0.7903889	a h u
-0.8830405	e h a
-0.4218591	e h e
-0.6461922	e h i
-0.5985818	e h u
-1.041033	i h a
-1.362457	i h e
-0.1642438	i h i
-0.8761904	i h o
-1.325584	i h u
-0.8838464	o h a
-0.8293453	o h e
-0.7462251	o h i
-0.494979	o h o
-0.6542373	o h u
-0.1844337	u h i
-0.6257815	u h u
-0.8110294	+ i +
-1.230257	+ i N
-0.9417097	+ i a
-1.217059	+ i h
-0.591436	+ i n
-0.9135892	+ i r
-0.9228558	+ i t
-1.237818	+ i w
-0.2863578	N i +
-0.333755	N i a
-0.08743878	a i +
-1.7886	a i N
-1.158075	a i a
-1.438893	a i h
-1.757789	a i n
-1.989171	a i r
-1.871818	a i t
-2.08963	a i w
-0.0876783	e i +
-1.420253	e i n
-1.42401	e i t
-0.5736952	f i +
-1.52205	f i N
-1.370473	f i f
-1.241174	f i o
-0.5600462	f i r
-0.7584346	f i t
-1.067371	f i u
-0.3087146	h i +
-1.898781	h i N
-0.4861467	h i a
-1.424957	h i k
-1.388055	h i n
-1.734537	h i o
-2.028795	h i p
-1.531391	h i r
-1.77863	h i t
-2.029957	h i w
-0.1402605	i i a
-0.1909796	k i +
-1.830166	k i N
-1.418734	k i a
-1.530535	k i h
-1.595812	k i k
-1.843351	k i m
-1.114602	k i n
-1.135832	k i r
-1.271754	k i t
-1.843537	k i w
-0.3920763	m i +
-0.9900686	m i a
-0.9456075	m i h
-0.8814558	m i n
-0.8740643	m i r
-1.276886	m i t
-0.1560517	n i +
-1.022218	n i h
-1.379712	n i k
-1.424201	n i u
-0.1154055	o i +
-0.7979518	o i a
-0.4387865	p i +
-1.37943	p i a
-1.068846	p i h
-0.9594864	p i k
-1.61277	p i p
-0.685069	p i r
-0.95708	p i t
-1.4409	p i u
-0.2258969	r i +
-1.503163	r i N
-1.050478	r i a
-1.808896	r i e
-1.612722	r i h
-1.226919	r i k
-1.631442	r i m
-2.003305	r i n
-1.924469	r i p
-1.191365	r i r
-1.253684	r i t
-1.802246	r i u
-0.3799934	t i +
-0.4832759	t i a
-1.957087	t i h
-1.152301	t i k
-2.162462	t i m
-1.264448	t i n
-2.160483	t i o
-1.698558	t i p
-1.344462	t i r
-1.552175	t i t
-0.1093966	u i +
-0.9107562	u i a
-1.47555	u i h
-1.443096	u i r
-0.2369505	w i +
-1.003182	w i k
-0.9793391	w i r
-0.9974915	w i t
-0.3635712	+ k a
-1.080425	+ k e
-0.8166539	+ k i
-0.648046	+ k o
-0.972497	+ k u
-0.1171921	a k a
-1.4794	a k e
-0.959408	a k i
-1.179349	a k o
-1.562928	a k u
-0.5998951	e k a
-0.2338516	e k e
-1.057779	e k i
-1.139319	e k o
-0.5769768	i k a
-1.481564	i k e
-0.3409138	i k i
-0.6704485	i k o
-1.490855	i k u
-0.7808763	o k a
-0.9971887	o k e
-0.774633	o k i
-0.3175646	o k o
-1.074601	o k u
-0.6822665	u k a
-0.7811473	u k e
-0.7653921	u k i
-0.3773618	u k u
-0.2048846	+ m a
-1.163395	+ m e
-0.9929836	+ m i
-0.8632473	+ m o
-1.162759	+ m u
-0.197085	a m a
-1.210277	a m e
-0.916429	a m o
-0.8145737	a m u
-0.7978555	e m e
-0.6258806	e m i
-0.7500603	e m o
-0.7906188	e m u
-0.4003855	i m a
-0.4290512	i m i
-0.7175577	i m u
-0.3887902	o m a
-0.5520335	o m i
-0.5463414	o m o
-0.4252091	u m a
-0.3959261	u m e
-0.7423813	u m u
-0.4084923	+ n a
-0.6119578	+ n e
-1.195293	+ n i
-0.8825325	+ n o
-0.7689601	+ n u
-0.1594973	a n a
-1.19804	a n e
-1.123517	a n i
-1.281442	a n o
-0.93478	a n u
-0.7230388	e n a
-0.2432549	e n e
-1.295571	e n i
-0.8070079	e n u
-0.3329921	i n a
-0.7833549	i n e
-0.6694304	i n i
-0.8949335	i n o
-1.537163	i n u
-0.5003242	o n a
-0.8461108	o n e
-0.3779673	o n o
-1.061949	o n u
-0.321974	u n a
-0.7312292	u n i
-0.5865653	u n u
-0.6586324	+ o +
-0.7480013	+ o h
-1.187119	+ o k
-1.515299	+ o m
-0.8789018	+ o n
-0.6996094	+ o r
-1.040329	+ o t
-0.1643119	N o +
-0.9572843	N o a
-0.8682977	N o i
-0.1852046	a o +
-1.321768	a o a
-0.6047584	a o r
-0.2988745	e o +
-0.6300335	e o i
-0.4133109	h o +
-1.174896	h o a
-1.440217	h o e
-1.577621	h o h
-1.507558	h o i
-0.9902657	h o k
-1.535325	h o m
-1.3486	h o n
-1.245885	h o p
-0.8936983	h o r
-1.750821	h o t
-1.179228	h o u
-0.124219	i o +
-0.8894897	i o r
-0.2359311	k o +
-1.611493	k o a
-1.327967	k o h
-1.301971	k o i
-1.687197	k o k
-1.856856	k o m
-2.024307	k o p
-0.8252516	k o r
-1.142775	k o t
-1.813841	k o u
-0.3414976	m o +
-1.147561	m o a
-0.92395	m o e
-1.327561	m o h
-1.141512	m o k
-1.268205	m o m
-1.361644	m o n
-1.240322	m o t
-1.353941	m o u
-0.197	n o +
-1.439809	n o a
-0.7631299	n o h
-1.35409	n o r
-0.372023	p o +
-1.35798	p o a
-1.229709	p o i
-1.218459	p o k
-1.36868	p o n
-0.9187415	p o r
-1.078725	p o t
-0.8561513	p o u
-0.1769945	r o +
-1.158978	r o N
-1.112669	r o a
-1.486131	r o h
-1.510028	r o i
-1.680784	r o k
-1.862026	r o n
-1.447117	r o r
-1.845298	r o t
-1.593259	r o u
-0.3817729	t o +
-1.851917	t o N
-1.779288	t o a
-1.690032	t o e
-0.8600335	t o h
-1.657687	t o i
-0.8821331	t o k
-1.856639	t o m
-1.223087	t o n
-0.9582703	t o r
-1.791115	t o t
-1.45586	t o u
-0.4073829	+ p a
-1.019436	+ p e
-0.9431801	+ p i
-0.7358312	+ p o
-0.667081	+ p u
-0.3456314	a p a
-0.9934562	a p e
-1.060031	a p i
-0.9104728	a p o
-0.6253181	a p u
-0.3930647	e p a
-0.8330021	e p e
-0.6107631	e p u
-0.5416396	i p i
-0.7114774	i p o
-0.437861	i p u
-0.690284	o p a
-0.7350377	o p e
-0.7256277	o p i
-0.8216056	o p o
-0.5656261	o p u
-0.7910304	u p e
-0.8921244	u p o
-0.2454863	u p u
-0.3703126	+ r a
-0.6935584	+ r e
-0.7735949	+ r i
-1.01066	+ r o
-0.9780014	+ r u
-0.3399649	a r a
-0.8114071	a r e
-0.7999273	a r i
-0.8527092	a r o
-1.04792	a r u
-0.6559098	e r a
-0.2444104	e r e
-1.208482	e r i
-0.8662136	e r o
-0.7920961	i r a
-1.394239	i r e
-0.1993113	i r i
-0.7879887	i r o
-0.8525699	o r a
-0.6275932	o r e
-0.7957932	o r i
-0.3971189	o r o
-1.200907	o r u
-0.5683603	u r a
-0.9861166	u r e
-0.5612687	u r i
-0.4601574	u r u
-0.3424324	+ t a
-1.179706	+ t e
-0.6671906	+ t i
-0.9313624	+ t o
-0.8325841	+ t u
-0.2701703	a t a
-1.16621	a t e
-0.9599417	a t i
-1.322781	a t o
-0.624012	a t u
-0.870044	e t a
-0.4377249	e t e
-0.3702326	e t i
-1.201712	e t u
-0.9712691	i t a
-0.6885774	i t e
-0.3047921	i t i
-0.9488275	i t o
-1.096943	i t u
-0.6954519	o t a
-0.5487224	o t i
-0.4075359	o t o
-1.017775	o t u
-0.43757	u t a
-1.358037	u t e
-0.9526591	u t i
-0.3459199	u t u
-0.7205626	+ u +
-1.064943	+ u a
-0.9884431	+ u i
-1.329313	+ u k
-1.37057	+ u m
-1.148888	+ u n
-0.6136115	+ u r
-0.8082971	+ u t
-0.2556769	N u +
-0.517371	N u r
-0.05805254	a u +
-1.195599	a u a
-1.989057	a u i
-1.868409	a u n
-1.731975	a u t
-0.03714034	e u +
-0.1670252	f u t
-0.3588398	h u +
-1.848644	h u N
-0.6439546	h u a
-1.679388	h u e
-1.663196	h u h
-1.143179	h u i
-1.786148	h u k
-1.657821	h u n
-0.8891487	h u r
-1.430202	h u t
-0.01059784	i u +
-0.2620348	k u +
-1.272283	k u a
-1.724095	k u h
-1.247809	k u i
-1.682493	k u k
-1.350824	k u m
-1.563141	k u p
-0.8091729	k u r
-1.190183	k u t
-0.3569287	m u +
-1.019385	m u a
-1.341237	m u k
-0.5930357	m u r
-0.8940982	m u t
-0.4219133	n u +
-0.8988382	n u a
-0.3915082	n u i
-1.113798	n u k
-0.1020192	o u +
-1.271013	o u a
-1.035556	o u r
-0.2932926	p u +
-1.902959	p u N
-0.9831218	p u a
-1.906211	p u e
-1.598124	p u h
-1.060907	p u k
-1.304644	p u n
-1.60112	p u p
-1.017896	p u r
-1.160769	p u t
-0.1849094	r u +
-1.786108	r u N
-0.6849108	r u a
-1.767197	r u h
-1.711263	r u i
-1.57532	r u k
-1.606995	r u m
-1.659334	r u r
-0.2077634	t u +
-0.9340636	t u a
-1.423293	t u h
-1.786281	t u i
-1.148155	t u k
-1.719476	t u m
-1.709995	t u n
-1.481608	t u p
-1.297844	t u r
-1.944804	t u t
-0.1246801	+ w a
-0.7589155	+ w e
-1.248334	+ w i
-1.908857	+ w o
-0.1697847	a w a
-0.5272802	a w e
-0.06689659	e w a
-0.2783099	i w a
-0.3499171	i w i

\end\
