
\data\
ngram 1=16
ngram 2=149
ngram 3=722

\1-grams:
-0.6384364	+	-2.57141
-1.683269	N	-2.006039
-0.7039579	a	0
-1.353025	e	-1.861343
-1.629725	f	-2.059183
-1.387014	h	-2.300596
-1.071181	i	0
-1.214282	k	-2.472756
-1.653248	m	-2.03583
-1.656483	n	-2.032616
-1.323008	o	-1.95238
-1.52092	p	-2.167318
-1.27056	r	-2.416641
-1.23933	t	-2.447773
-1.272903	u	-2.002005
-1.986897	w	-1.705863

\2-grams:
-99	+ +
-1.398579	+ N	-1.658998
-1.292697	+ a	-1.296724
-2.246905	+ e	-0.2418059
-1.00843	+ f	-0.5819316
-0.9288577	+ h	-2.122903
-1.816677	+ i	-0.04245865
-0.9366417	+ k	-2.114489
-1.113685	+ m	-1.939646
-1.463441	+ n	-1.595442
-1.89799	+ o	-0.2976414
-0.9639775	+ p	-2.087857
-1.014449	+ r	-2.037906
-0.7363995	+ t	-2.31342
-1.922712	+ u	0.1795125
-1.506555	+ w	-0.4297841
-99	N +
-0.1684639	N a	-0.9511173
-1.846363	N e	-0.2405328
-0.6946045	N i	-1.197078
-1.122517	N o	-0.8150087
-1.616279	N u	-0.3897223
-0.2793417	a +
-1.371899	a N	-1.716008
-2.969295	a a
-1.797385	a e	-0.6739401
-2.710249	a f	-0.5447587
-1.540296	a h	-1.456361
-1.255142	a i	-0.6407994
-0.9248569	a k	-2.061267
-1.980188	a m	-0.6030734
-1.560502	a n	-1.437807
-2.03134	a o	-0.8391762
-1.872796	a p	-1.139884
-1.254331	a r	-1.735593
-1.512202	a t	-1.482982
-1.281087	a u	-0.9539752
-1.99058	a w	-0.607137
-0.2920014	e +
-1.799103	e N	-0.2453409
-1.224742	e a	-1.799341
-2.398752	e f	-0.4771214
-1.397788	e h	-1.070037
-1.257302	e i	-0.5631648
-1.180602	e k	-1.273
-1.98307	e m	-0.3798937
-1.353202	e n	-0.6170508
-2.21051	e o	-0.240426
-1.942186	e p	-0.1554677
-0.9013261	e r	-1.450306
-1.43684	e t	-1.031408
-2.356169	e u	-0.6989701
-2.030764	e w	-0.3442293
-99	f +
-0.09920066	f a	-1.401352
-1.143028	f e	-0.3592867
-0.9166424	f i	-0.6798706
-2.665552	f o
-2.402755	f u	-0.4771212
-99	h +
-0.5846112	h a	0.1012099
-0.9692824	h e	-0.5276157
-0.4752675	h i	-0.8282049
-0.8465509	h o	-1.07648
-0.8169605	h u	-1.209514
-0.2588847	i +
-1.864535	i N	-1.014243
-0.7531338	i a	-1.400732
-2.42977	i e	-0.3475479
-2.512307	i f	-0.406456
-1.571294	i h	-1.079206
-2.790712	i i	-0.4771212
-1.424843	i k	-1.214832
-2.15979	i m	-0.7533276
-1.351358	i n	-1.287793
-2.092521	i o	-0.5320142
-2.099794	i p	-0.5182569
-1.223884	i r	-1.501745
-1.372711	i t	-1.264878
-2.065085	i u	-1.255273
-2.108236	i w	-0.954243
-99	k +
-0.2818711	k a	-1.75099
-1.047151	k e	-0.5304126
-0.8225958	k i	-0.3567989
-0.8020697	k o	-0.5563446
-1.110023	k u	-0.5254953
-99	m +
-0.2269594	m a	-0.5753483
-1.109263	m e	-0.7533282
-0.9608349	m i	-0.2381523
-0.8820902	m o	-0.9084854
-1.079021	m u	-0.5731231
-99	n +
-0.3442193	n a	-0.4316109
-0.7136303	n e	-1.018936
-1.003849	n i	-0.514927
-0.9104838	n o	-0.4622067
-0.8973797	n u	-1.255272
-0.2969568	o +
-1.738567	o N	-0.9030915
-1.313737	o a	-0.653079
-1.774587	o e	-0.7155247
-1.171272	o h	-1.220094
-1.452447	o i	-0.5888573
-1.24159	o k	-1.152369
-1.828559	o m	-0.8239091
-1.440122	o n	-0.508453
-1.908212	o p	-0.579777
-0.9670002	o r	-1.414957
-1.38736	o t	-0.4782252
-1.416082	o u	-0.5275786
-99	p +
-0.4160558	p a	-0.7265671
-1.013674	p e	-0.6206578
-0.9347053	p i	-0.668076
-0.7685524	p o	-0.7181715
-0.6402891	p u	-0.835201
-99	r +
-0.4643436	r a	-1.517636
-0.6822859	r e	-0.4060462
-0.6819616	r i	-0.4085985
-0.8549724	r o	-0.6320721
-1.004124	r u	-0.8174807
-99	t +
-0.3781184	t a	-0.5234466
-1.100558	t e	-0.3745257
-0.6329654	t i	-0.5712711
-0.9557509	t o	-0.278802
-0.8057753	t u	-0.4716173
-0.2255284	u +
-2.148884	u N	-1
-0.9528704	u a	-0.9689132
-2.236465	u e	-0.1496093
-3.000352	u f
-1.763119	u h	-0.5173467
-1.289198	u i	-0.8351439
-1.418769	u k	-0.6807315
-1.904052	u m	-0.8016322
-1.664361	u n	-0.6532897
-1.8756	u p	-0.5451539
-1.075747	u r	-1.451016
-1.393727	u t	-0.6138644
-99	w +
-0.1495888	w a	-0.6830369
-0.7215904	w e	-0.3031657
-1.116486	w i	-0.4646676
-2.055039	w o
-2.302151	w u

\3-grams:
-0.1953932	+ N a
-1.50844	+ N e
-0.6174924	+ N i
-1.301903	+ N o
-1.397894	+ N u
-0.1201933	a N a
-0.7180921	a N i
-1.454641	a N o
-1.827153	a N u
-0.09594924	e N a
-0.8850453	e N i
-0.1895629	i N a
-0.7427038	i N i
-0.7731708	i N o
-0.5329202	o N a
-0.9642265	o N i
-0.2271205	o N o
-0.01419291	u N a
-0.4689339	+ a +
-1.912004	+ a N
-1.67763	+ a e
-1.625849	+ a f
-1.121882	+ a h
-1.480045	+ a i
-0.9440538	+ a k
-1.683387	+ a m
-1.41537	+ a n
-1.761831	+ a o
-1.849399	+ a p
-0.87249	+ a r
-1.084279	+ a t
-1.366048	+ a u
-1.511179	+ a w
-0.05935179	N a +
-2.028254	N a h
-1.613935	N a i
-1.629518	N a k
-2.186782	N a n
-1.523188	N a r
-2.025489	N a t
-1.888532	N a u
-0.003282657	e a +
-1.073547	f a +
-2.132828	f a N
-2.167842	f a e
-1.53533	f a i
-0.1013823	f a k
-1.655667	f a n
-2.177068	f a o
-1.604617	f a r
-1.654301	f a t
-0.4745104	h a +
-1.102552	h a N
-1.201234	h a e
-2.051732	h a h
-1.491614	h a i
-1.187737	h a k
-1.81897	h a m
-1.127851	h a n
-1.940882	h a o
-1.72166	h a p
-0.9348438	h a r
-1.898524	h a t
-0.8272475	h a u
-1.819358	h a w
-0.01295702	i a +
-1.997262	i a k
-2.254041	i a o
-0.1716894	k a +
-2.077888	k a N
-2.550094	k a e
-1.682141	k a h
-0.9844404	k a i
-1.830213	k a k
-2.185562	k a m
-1.924636	k a n
-2.109599	k a o
-1.848338	k a p
-1.286636	k a r
-1.878774	k a t
-1.287132	k a u
-1.716863	k a w
-0.4065868	m a +
-1.862797	m a N
-1.899401	m a e
-1.087239	m a h
-1.275162	m a i
-1.539868	m a k
-1.736414	m a m
-0.9641207	m a n
-1.564562	m a o
-1.186998	m a r
-0.929213	m a t
-1.13177	m a u
-0.1562113	n a +
-1.662164	n a N
-2.06295	n a e
-2.029091	n a h
-1.648155	n a i
-1.188142	n a k
-1.912101	n a m
-1.317032	n a n
-2.069957	n a p
-1.730554	n a r
-2.024246	n a t
-1.421691	n a u
-1.448841	n a w
-0.1759572	o a +
-1.407113	o a i
-1.281189	o a n
-1.255164	o a r
-0.9270799	o a t
-0.3720185	p a +
-1.917858	p a N
-1.315836	p a e
-1.600605	p a h
-1.195985	p a i
-1.115286	p a k
-1.342618	p a n
-1.615809	p a o
-1.382905	p a p
-0.9153898	p a r
-1.118105	p a t
-1.439754	p a u
-0.3031862	r a +
-0.8274109	r a N
-1.945762	r a e
-1.505233	r a h
-1.413818	r a i
-1.254369	r a k
-1.657383	r a m
-2.021717	r a n
-2.33527	r a o
-1.511791	r a p
-1.413782	r a r
-1.792686	r a t
-1.075621	r a u
-1.952479	r a w
-0.4585998	t a +
-0.8366982	t a N
-2.474854	t a a
-1.768656	t a e
-1.310347	t a h
-1.167988	t a i
-0.9878902	t a k
-1.628304	t a m
-1.853245	t a n
-2.161668	t a o
-1.59734	t a p
-1.249514	t a r
-1.719203	t a t
-0.9293327	t a u
-0.05540598	u a +
-1.416296	u a k
-1.307842	u a r
-0.4158865	w a +
-1.881418	w a N
-1.232151	w a e
-1.067626	w a h
-0.5937999	w a i
-1.746161	w a k
-1.758573	w a n
-1.114659	w a r
-1.413627	w a t
-1.721343	w a u
-1.57154	w a w
-0.501878	+ e +
-1.19784	+ e a
-1.229125	+ e h
-0.7216008	+ e k
-1.281171	+ e m
-1.222018	+ e n
-0.7489961	+ e r
-0.2571563	N e +
-0.6240574	N e r
-0.1754401	a e +
-1.214411	a e N
-1.27331	a e a
-1.55877	a e h
-1.55234	a e n
-0.9241025	a e r
-0.5414692	f e +
-0.8788347	f e a
-0.7682641	f e n
-0.5761168	f e r
-1.329871	f e t
-0.350768	h e +
-1.005347	h e a
-1.190597	h e i
-0.9671984	h e k
-1.7467	h e m
-1.756385	h e o
-0.7030264	h e r
-0.1078431	i e +
-0.1863629	k e +
-1.599514	k e a
-1.51187	k e h
-1.604745	k e i
-1.27112	k e k
-1.283565	k e n
-1.144397	k e r
-1.139736	k e t
-0.4876052	m e +
-1.050857	m e a
-1.334635	m e h
-1.163791	m e i
-1.045398	m e k
-1.386681	m e m
-0.7833394	m e n
-0.9201396	m e r
-1.340371	m e t
-0.300455	n e +
-1.720799	n e N
-1.183186	n e h
-0.6953256	n e i
-0.9497406	n e k
-1.128553	n e t
-0.04298579	o e +
-0.4156543	p e +
-1.598871	p e f
-1.528248	p e h
-1.357894	p e i
-0.8807368	p e k
-1.09937	p e n
-1.056357	p e p
-0.7861024	p e r
-1.53452	p e t
-0.2503259	r e +
-1.660891	r e N
-1.381698	r e a
-1.522361	r e h
-1.205056	r e i
-1.458172	r e k
-1.837261	r e m
-1.70505	r e n
-2.135484	r e o
-0.8664933	r e r
-1.524812	r e t
-1.494354	r e w
-0.2693532	t e +
-0.8647991	t e a
-1.438962	t e h
-1.422823	t e i
-1.258619	t e k
-1.274266	t e n
-0.9936182	t e r
-0.1849864	u e +
-0.5303041	w e +
-1.349121	w e a
-0.7065178	w e h
-1.338583	w e k
-1.375433	w e n
-1.438274	w e p
-0.6751116	w e r
-1.123371	w e t
-0.08473382	+ f a
-1.15885	+ f e
-0.9898642	+ f i
-2.437421	+ f u
-0.1253433	a f i
-0.2228653	e f a
-0.4469506	e f e
-0.1835665	i f i
-0.5375314	+ h a
-0.960956	+ h e
-0.5147159	+ h i
-0.8098928	+ h o
-0.854143	+ h u
-0.4537573	a h a
-1.751076	a h e
-0.3868918	a h i
-1.268175	a h o
-0.7794513	a h u
-0.8909894	e h a
-0.4308175	e h e
-0.6175217	e h i
-0.6072778	e h u
-1.053773	i h a
-1.22956	i h e
-0.1688365	i h i
-0.8909898	i h o
-1.336913	i h u
-0.9061884	o h a
-0.8208967	o h e
-0.7525356	o h i
-0.4923733	o h o
-0.6457967	o h u
-0.2291753	u h i
-0.5947931	u h u
-0.817578	+ i +
-1.269291	+ i N
-0.898819	+ i a
-1.181415	+ i h
-1.592898	+ i k
-0.6294262	+ i n
-0.9134684	+ i r
-0.9212446	+ i t
-1.197402	+ i w
-0.3080949	N i +
-0.3091321	N i a
-0.0868507	a i +
-1.824542	a i N
-1.18592	a i a
-1.474535	a i h
-1.78753	a i n
-1.873895	a i r
-1.898897	a i t
-2.123166	a i w
-0.08031444	e i +
-1.455612	e i n
-1.458431	e i t
-0.5504903	f i +
-1.565156	f i N
-1.337128	f i a
-1.287041	f i f
-1.282209	f i o
-0.6012262	f i r
-0.7655888	f i t
-1.042216	f i u
-0.3070679	h i +
-1.919573	h i N
-0.4855421	h i a
-1.410316	h i k
-1.376681	h i n
-1.753962	h i o
-2.048364	h i p
-1.55156	h i r
-1.798026	h i t
-2.048622	h i w
-0.1393527	i i a
-0.1934682	k i +
-1.870815	k i N
-1.36028	k i a
-1.570216	k i h
-1.633437	k i k
-1.882956	k i m
-1.081124	k i n
-1.099301	k i r
-1.310289	k i t
-1.881365	k i w
-0.4182279	m i +
-1.013693	m i a
-0.9726793	m i h
-0.8154438	m i n
-0.9011795	m i r
-1.101603	m i t
-0.1477637	n i +
-0.9919109	n i h
-1.423455	n i k
-1.469597	n i u
-0.1222647	o i +
-0.7566125	o i a
-0.4054125	p i +
-1.418161	p i a
-1.113298	p i h
-0.8818699	p i k
-1.656838	p i p
-0.7291608	p i r
-1.000854	p i t
-1.484933	p i u
-0.2200408	r i +
-1.541495	r i N
-1.032063	r i a
-1.847171	r i e
-1.650317	r i h
-1.263775	r i k
-1.669736	r i m
-2.03598	r i n
-1.84087	r i p
-1.203546	r i r
-1.261901	r i t
-1.839893	r i u
-0.3835682	t i +
-0.4609197	t i a
-2.005303	t i h
-1.15934	t i k
-2.210057	t i m
-1.310645	t i n
-2.206936	t i o
-1.744634	t i p
-1.360632	t i r
-1.550146	t i t
-0.1049763	u i +
-0.902711	u i a
-1.522028	u i h
-1.489795	u i r
-0.2417579	w i +
-1.040167	w i k
-1.018748	w i r
-0.8734407	w i t
-0.3578034	+ k a
-1.102208	+ k e
-0.8190339	+ k i
-0.6528464	+ k o
-0.9660817	+ k u
-0.1153809	a k a
-1.49446	a k e
-0.9559268	a k i
-1.183061	a k o
-1.602419	a k u
-0.6176178	e k a
-0.228081	e k e
-0.9941439	e k i
-1.209392	e k o
-0.5594603	i k a
-1.524903	i k e
-0.3485297	i k i
-0.6887974	i k o
-1.383857	i k u
-0.786323	o k a
-0.832202	o k e
-0.8197582	o k i
-0.3355344	o k o
-1.119822	o k u
-0.7065656	u k a
-0.8056111	u k e
-0.743288	u k i
-0.3633988	u k u
-0.2007943	+ m a
-1.155776	+ m e
-0.989669	+ m i
-0.8701771	+ m o
-1.200472	+ m u
-0.1967303	a m a
-1.210319	a m e
-0.9171517	a m o
-0.8152146	a m u
-0.8259434	e m e
-0.654236	e m i
-0.7798978	e m o
-0.6704978	e m u
-0.399287	i m a
-0.4291611	i m i
-0.7185532	i m u
-0.3575878	o m a
-0.5744404	o m i
-0.569153	o m o
-0.4475917	u m a
-0.419419	u m e
-0.6503552	u m u
-0.4295795	+ n a
-0.6226752	+ n e
-1.164274	+ n i
-0.8378808	+ n o
-0.7549727	+ n u
-0.1487714	a n a
-1.184083	a n e
-1.159199	a n i
-1.316227	a n o
-0.9713791	a n u
-0.6356669	e n a
-0.277633	e n e
-1.327103	e n i
-0.7881004	e n u
-0.3407275	i n a
-0.7571716	i n e
-0.6751114	i n i
-0.8859034	i n o
-1.566276	i n u
-0.4884481	o n a
-0.8290641	o n e
-0.3795217	o n o
-1.1118	o n u
-0.364935	u n a
-0.5810532	u n i
-0.6297057	u n u
-0.6337699	+ o +
-0.7432903	+ o h
-1.158854	+ o k
-1.57574	+ o m
-0.8952976	+ o n
-0.7292719	+ o r
-1.039225	+ o t
-0.1458553	N o +
-1.000597	N o a
-0.9121909	N o i
-0.1758356	a o +
-1.339959	a o a
-0.623135	a o r
-0.299668	e o +
-0.6308159	e o i
-0.4081369	h o +
-1.840599	h o N
-1.206649	h o a
-1.396649	h o e
-1.60191	h o h
-1.453245	h o i
-1.021677	h o k
-1.567815	h o m
-1.316902	h o n
-1.27861	h o p
-0.9024711	h o r
-1.786727	h o t
-1.169195	h o u
-0.1169625	i o +
-0.9125766	i o r
-0.2356597	k o +
-1.571101	k o a
-1.282905	k o h
-1.333563	k o i
-1.633381	k o k
-1.888509	k o m
-1.852134	k o n
-2.058124	k o p
-0.8436614	k o r
-1.17435	k o t
-1.848787	k o u
-0.3397306	m o +
-1.169262	m o a
-0.9462085	m o e
-1.343333	m o h
-1.16237	m o k
-1.290604	m o m
-1.381761	m o n
-1.297937	m o r
-1.26406	m o t
-1.379102	m o u
-0.2166453	n o +
-1.488201	n o a
-0.7413086	n o h
-1.47435	n o k
-1.508325	n o n
-1.276156	n o r
-0.3975613	p o +
-1.318385	p o a
-1.565182	p o h
-1.26388	p o i
-1.106122	p o k
-1.400928	p o n
-0.8978727	p o r
-1.073053	p o t
-0.8901932	p o u
-0.1804	r o +
-1.13493	r o N
-1.095159	r o a
-1.454723	r o h
-1.553531	r o i
-1.72101	r o k
-1.949727	r o m
-1.901201	r o n
-1.424792	r o r
-1.891282	r o t
-1.638432	r o u
-0.3892305	t o +
-1.875577	t o N
-1.665252	t o a
-1.717662	t o e
-0.8295228	t o h
-1.686401	t o i
-0.8879431	t o k
-1.884286	t o m
-1.248874	t o n
-0.9374487	t o r
-1.821704	t o t
-1.485047	t o u
-0.4012912	+ p a
-1.027201	+ p e
-0.94426	+ p i
-0.742008	+ p o
-0.6690007	+ p u
-0.3214118	a p a
-1.026972	a p e
-1.020549	a p i
-0.9438712	a p o
-0.6585892	a p u
-0.3904502	e p a
-0.8352096	e p e
-0.6129588	e p u
-0.4904685	i p i
-0.7349975	i p o
-0.4611915	i p u
-0.6856571	o p a
-0.7366129	o p e
-0.7247349	o p i
-0.8236107	o p o
-0.5673959	o p u
-0.792327	u p e
-0.8938309	u p o
-0.2460984	u p u
-0.3770991	+ r a
-0.6948492	+ r e
-0.7630842	+ r i
-0.982827	+ r o
-0.9921405	+ r u
-0.331736	a r a
-0.8213704	a r e
-0.7714341	a r i
-0.9069619	a r o
-1.045487	a r u
-0.6479348	e r a
-0.2681818	e r e
-1.243966	e r i
-0.8332859	e r o
-1.496463	e r u
-0.7739353	i r a
-1.269298	i r e
-0.2126458	i r i
-0.7908105	i r o
-0.8417203	o r a
-0.6220334	o r e
-0.8342777	o r i
-0.3839834	o r o
-1.239156	o r u
-0.585128	u r a
-0.9800448	u r e
-0.5502152	u r i
-0.4576239	u r u
-0.3443643	+ t a
-1.190691	+ t e
-0.6545898	+ t i
-0.9352745	+ t o
-0.8373777	+ t u
-0.2570817	a t a
-1.20887	a t e
-0.9226288	a t i
-1.365362	a t o
-0.6531585	a t u
-0.8795242	e t a
-0.4208196	e t e
-0.3798564	e t i
-1.214243	e t u
-0.9597505	i t a
-0.7233221	i t e
-0.2901759	i t i
-0.940386	i t o
-1.132431	i t u
-0.6709388	o t a
-0.5351856	o t i
-0.424776	o t o
-1.036396	o t u
-0.4317283	u t a
-1.376269	u t e
-0.9660025	u t i
-0.3445586	u t u
-0.7119901	+ u +
-1.090173	+ u a
-1.548284	+ u h
-1.010335	+ u i
-1.35333	+ u k
-1.39383	+ u m
-1.171116	+ u n
-0.6131596	+ u r
-0.7957172	+ u t
-0.2323587	N u +
-0.5474996	N u r
-0.05773427	a u +
-1.185626	a u a
-2.031094	a u i
-1.911792	a u n
-1.98647	a u r
-1.777503	a u t
-0.03669036	e u +
-0.1674081	f u t
-0.352488	h u +
-1.722238	h u N
-0.6765744	h u a
-1.601201	h u e
-1.708108	h u h
-1.112126	h u i
-1.680435	h u k
-1.702119	h u n
-0.8906184	h u r
-1.476808	h u t
-0.009884767	i u +
-0.2583797	k u +
-1.31054	k u a
-1.759943	k u h
-1.166786	k u i
-1.720102	k u k
-1.309824	k u m
-1.600926	k u p
-0.8455164	k u r
-1.172429	k u t
-0.3352174	m u +
-1.038367	m u a
-1.359507	m u k
-0.6105223	m u r
-0.9122228	m u t
-0.4528451	n u +
-0.8820914	n u a
-0.3772461	n u i
-1.06828	n u k
-0.1107019	o u +
-1.282412	o u a
-0.9561989	o u r
-0.2772176	p u +
-1.935192	p u N
-1.016666	p u a
-1.938182	p u e
-1.630661	p u h
-1.093906	p u k
-1.202154	p u n
-1.635173	p u p
-1.050802	p u r
-1.194264	p u t
-0.1839296	r u +
-1.825195	r u N
-0.7084644	r u a
-1.640841	r u h
-1.748515	r u i
-1.615724	r u k
-1.646804	r u m
-1.462641	r u r
-0.2077779	t u +
-0.9110771	t u a
-1.448455	t u h
-1.809645	t u i
-1.146371	t u k
-1.745022	t u m
-1.734541	t u n
-1.507635	t u p
-1.285308	t u r
-1.973575	t u t
-0.133785	+ w a
-0.7220229	+ w e
-1.236557	+ w i
-1.942362	+ w o
-0.1581853	a w a
-0.5525572	a w e
-0.06142887	e w a
-0.2813492	i w a
-0.3439578	i w i

\end\
